tree
version=v4
num_class=1
num_tree_per_iteration=1
label_index=0
max_feature_idx=9
objective=regression
feature_names=Column_0 Column_1 Column_2 Column_3 Column_4 Column_5 Column_6 Column_7 Column_8 Column_9
feature_infos=[-3.4637567160373686:3.7488928522296971] [-3.6577897179198473:3.8139590423245986] [-3.8519940966460222:3.2978072251758705] [-3.5464528870044978:3.6686192732484173] [-3.4337520638762715:3.6274308934742918] [-4.360160746201867:3.5028851215671675] [-4.1303084727070232:4.0848684346111837] [-3.6893426041951538:3.5920862507508704] [-3.4830923153201883:3.5763424799462147] [-3.6919621649422916:3.6397855150902672]
tree_sizes=2729 2849 2839 2837 2844 2839 2838 2832 2843 2843 2837 2834 2843 2837 2866 2845 2843 2856 2856 2860 2851 2862 2861 2850 2870 2865 2847 2853 2865 2857 2875 2873 2851 2869 2854 2873 2866 2882 2873 2873 2852 2875 2874 2858 2878 2884 2875 2859 2861 2862 2876 2869 2869 2890 2865 2876 2872 2879 2864 2882 2884 2881 2871 2871 2857 2869 2876 2887 2886 2893 2885 2872 2889 2880 2883 2869 2890 2890 2885 2880 2890 2904 2878 2892 2878 2910 2889 2919 2898 2913 2911 2918 2887 2920 2907 2916 2897 2925 2924 2903 2925 2918 2934 2894 2927 2915 2914 2906 2925 2928 2923 2943 2899 2912 2908 2906 2907 2922 2916 2926 2903 2908 2916 2906 2923 2901 2919 2910 2923 2912 2912 2894 2930 2906 2907 2916 2942 2910 2912 2914 2926 2896 2923 2910 2930 2902 2912 2904 2910 2897 2877 2920 2915 2922 2906 2889 2886 2906 2923 2898 2910 2869 2928 2891 2913 2912 2891 2910 2910 2910 2861 2855 2904 2897 2867 2892 2871 2874 2885 2879 2892 2881 2898 2905 2875 2892 2913 2913 2890 2878 2867 2865 2869 2867 2851 2881 2872 2876 2872 2894 2869 2884 2898 2894 2904 2868 2844 2874 2883 2878 2888 2880 2890 2905 2886 2903 2870 2878 2904 2886 2861 2857 2859 2867 2875 2871 2889 2875 2885 2876 2865 2873 2883 2873 2894 2896 2860 2865 2897 2883 2866 2877 2880 2879 2887 2885 2876 2889 2884 2877 2846 2857 2878 2897 2844 2851 2877 2862 2863 2881 2905 2881 2898 2896 2878 2895 2854 2902 2907 2876 2844 2843 2859 2848 2880 2901 2891 2878 2894 2894 2872 2892 2843 2851 2864 2878 2888 2861 2853 2867 2883 2884 2889 2857 2854 2872 2859 2879 2847 2873 2871 2863 2861 2864 2880 2913 2882 2879 2879 2866 2914 2864 2889 2909 2858 2877 2878 2874 2893 2902 2852 2873 2866 2880 2848 2872 2892 2879 2898 2885 2879 2872 2889 2881 2857 2875 2868 2866 2866 2852 2877 2877 2879 2880 2887 2856 2871 2900 2880 2855 2856 2869 2888 2887 2872 2897 2869 2907 2872 2858 2886 2874 2889 2877 2874 2870 2869 2877 2872 2868 2886 2889 2868 2885 2863 2839 2881 2871 2888 2870 2870 2862 2877 2870 2881 2863 2849 2882 2863 2890 2848 2850 2845 2860 2844 2868 2865 2869 2865 2887 2895 2913 2873 2872 2856 2883 2867 2857 2852 2893 2883 2896 2896 2891 2894 2875 2880 2864 2871 2872 2881 2881 2855 2859 2911 2868 2863 2865 2862 2875 2876 2883 2906 2882 2901 2894 2892 2884 2892 2887 2869 2888 2871 2879 2869 2882 2864 2872 2883 2866 2896 2885 2861 2877 2883 2854 2867 2889 2867 2872 2845 2863 2864 2863 2873 2873 2882 2866 2885 2867 2916 2890 2918 2926 2897 2874 2864 2862 2877 2885 2864 2877 2885 2881 2896 2865 2857 2898 2862 2851 2861 2873 2886 2867 2871 2883 2900 2865 2881 2878

Tree=0
num_leaves=31
num_cat=0
split_feature=6 1 6 7 5 3 3 5 2 7 0 0 2 9 8 1 8 9 2 6 6 1 0 8 2 5 1 0 0 5
split_gain=52.8895 49.7235 45.8967 43.264 42.0153 41.2664 43.2017 40.0205 39.1653 35.5053 30.6969 32.229 30.8578 25.1476 24.0024 24.355 23.1163 15.7176 7.54416 7.44452 6.37056 6.2752 5.70395 5.58439 5.40373 5.36898 4.97722 4.79206 5.93322 4.59701
threshold=-1.4785514886735527 1.4483727055294717 1.5185905268135544 -1.6172836899885923 -1.5559893583685456 -1.5835338161536572 1.6335719356840748 1.2875767244203942 1.4186207353156544 1.674115418637915 1.5297215989121249 -1.6567350688983644 -1.5169661900654992 -1.772856141381278 -1.8736176621764413 -1.9051607583047712 1.9750502639104066 1.3058924765752049 -2.0200755566907991 1.9196380523296896 -1.9761172790502792 2.1659949114156505 1.9979615593761866 1.3863704878965522 -1.5169661900654992 2.2330325014582564 -1.6346824844205958 -1.1265233533829913 1.4392041708431076 -2.1206706095165342
decision_type=2 2 2 2 2 2 2 2 2 2 2 2 2 2 2 2 2 2 2 2 2 2 2 2 2 2 2 2 2 2
left_child=20 2 3 -2 29 -6 7 8 9 10 11 -7 18 -14 -15 -16 17 23 -13 -4 -1 -3 -12 -17 -9 26 -26 -28 -29 -5
right_child=1 21 19 4 5 6 -8 24 -10 -11 22 12 13 14 15 16 -18 -19 -20 -21 -22 -23 -24 -25 25 -27 27 28 -30 -31
leaf_value=0.51088069552104576 0.50346249894363182 0.49907725726776747 0.49574018676396225 0.51044468472588467 0.50041651804511422 0.49663238397103338 0.50276805451988349 0.51037222095992829 0.49599032293379614 0.49933773853016084 0.48837660758036094 0.50561731914085106 0.49720555468565886 0.4987055546409554 0.49903888796435464 0.46759419896187121 0.50059080048641003 0.48121528278866527 0.48571813364436289 0.50916009978393106 0.4994010926779695 0.51275317326992276 0.50515292286986146 0.47765113349971855 0.51170555425352515 0.50710178080582269 0.50495555445469087 0.48426304636057432 0.50635261323658465 0.49725256323126643
leaf_weight=177 288 417 231 92 301 164 224 45 302 174 152 68 100 80 75 2263 61 257 159 187 381 105 76 147 25 53 40 287 34 234
leaf_count=177 288 417 231 92 301 164 224 45 302 174 152 68 100 80 75 2263 61 257 159 187 381 105 76 147 25 53 40 287 34 234
internal_value=0.488111 0.487015 0.485752 0.484579 0.483574 0.482459 0.48133 0.480277 0.478664 0.477278 0.476212 0.475013 0.473908 0.472556 0.471701 0.47093 0.470157 0.469461 0.491679 0.501744 0.503042 0.501828 0.493969 0.468208 0.493871 0.492179 0.49013 0.488636 0.486603 0.500975
internal_weight=0 6641 6119 5701 5413 5087 4786 4562 4078 3776 3602 3374 3210 2983 2883 2803 2728 2667 227 418 558 522 228 2410 484 439 386 361 321 326
internal_count=7199 6641 6119 5701 5413 5087 4786 4562 4078 3776 3602 3374 3210 2983 2883 2803 2728 2667 227 418 558 522 228 2410 484 439 386 361 321 326
is_linear=0
shrinkage=1


Tree=1
num_leaves=31
num_cat=0
split_feature=6 6 7 2 2 8 9 0 0 3 3 7 4 4 8 5 5 9 5 2 0 6 9 9 4 8 8 5 3 5
split_gain=47.7328 42.8758 42.5981 39.7564 40.4341 35.6356 33.9717 32.8792 36.0579 29.9991 33.0234 28.1739 25.6751 24.5119 24.4558 25.8039 24.235 10.2496 9.46008 8.11259 6.08344 5.74943 5.59313 5.46527 5.17565 5.12916 5.08872 4.91125 4.87557 4.65954
threshold=-1.4785514886735527 1.5955466699863694 -1.6172836899885923 1.4186207353156544 -1.3081708758842296 -1.5422082502408145 -1.8290787904760648 1.5647789620690293 -1.6567350688983644 1.6335719356840748 -1.5835338161536572 1.571245893791174 -1.7451003791699062 1.9266208389531416 1.7463736241351631 -1.1958760830073323 1.4080547798760399 1.9317155795546268 -2.1206706095165342 -2.0200755566907991 1.9979615593761866 -1.9761172790502792 1.7223434772467527 -1.1912353332435832 -0.92955431104754782 -0.9419936408411832 0.70167890869937588 2.1055106441363463 -2.0108584831948551 1.4928148375837029
decision_type=2 2 2 2 2 2 2 2 2 2 2 2 2 2 2 2 2 2 2 2 2 2 2 2 2 2 2 2 2 2
left_child=21 2 -2 4 19 -6 -7 8 -8 10 28 12 -12 14 15 18 17 24 -14 -4 -9 -1 23 -20 -17 -21 29 -18 -10 -27
right_child=1 -3 3 -5 5 6 7 20 9 -11 11 -13 13 -15 -16 16 27 -19 22 25 -22 -23 -24 -25 -26 26 -28 -29 -30 -31
leaf_value=0.021631105808214954 0.015510610520657414 0.014849369007543215 0.020140998729136814 0.011503318591265504 0.011037300195408819 0.016527216910923782 0.011352061747118485 0.0033290127974859676 0.017663927794229695 0.010452442696202274 0.0087543302751851813 0.0063165640155670097 0.018092331702404835 0.013949280442335669 0.0071626317169931203 -0.013379642527318944 -0.0056475284741009553 0.0062535767875066626 0.011016762256622315 0.018052675640758346 0.018710810029618094 0.010725483431277938 0.017268458070854347 -0.010300110458181456 -0.01993017383743563 -0.0025925521479278316 0.012505655305889938 0.01189920699596405 0.0023900695248610447 0.0204966276884079
leaf_weight=177 327 399 119 436 301 152 215 161 82 177 132 203 47 78 126 354 197 41 34 68 107 381 24 260 2035 244 104 50 144 24
leaf_count=177 327 399 119 436 301 152 215 161 82 177 132 203 47 78 126 354 197 41 34 68 107 381 24 260 2035 244 104 50 144 24
internal_value=0 -0.00104102 -0.00205677 -0.00302795 -0.00418429 -0.00563212 -0.00671839 -0.00750938 -0.0085931 -0.00966946 -0.010605 -0.0117749 -0.0128621 -0.0137411 -0.0144229 -0.015317 -0.0170174 -0.0185341 -0.00284569 0.00855865 0.00947025 0.0141848 -0.0059403 -0.00783489 -0.0189595 0.00542615 0.00311808 -0.00209556 0.00793191 -0.000524864
internal_weight=0 6641 6242 5915 5479 4920 4619 4467 4199 3984 3807 3581 3378 3246 3168 3042 2677 2430 365 559 268 558 318 294 2389 440 372 247 226 268
internal_count=7199 6641 6242 5915 5479 4920 4619 4467 4199 3984 3807 3581 3378 3246 3168 3042 2677 2430 365 559 268 558 318 294 2389 440 372 247 226 268
is_linear=0
shrinkage=0.05


Tree=2
num_leaves=31
num_cat=0
split_feature=6 1 6 5 4 4 1 0 7 0 7 3 3 8 8 5 9 9 8 0 6 8 1 3 9 6 3 3 8 9
split_gain=43.0788 44.4633 37.759 36.8022 36.4262 37.1506 33.0519 32.2554 32.93 31.0161 30.0364 29.4038 29.1202 25.8388 27.205 25.344 17.8474 18.3068 8.21773 7.69205 6.50528 6.17133 5.66499 5.59419 5.40682 5.18886 4.59674 6.20888 4.50234 4.0681
threshold=-1.4785514886735527 1.4483727055294717 1.5185905268135544 -1.5559893583685456 1.6644107263759174 -1.6086880335428708 -1.9051607583047712 1.4122113961307481 -1.6172836899885923 -1.691609655841037 1.674115418637915 -1.6160578739800178 1.6335719356840748 -2.0235865036437795 1.3419623940145822 1.938749928999395 -1.8290787904760648 1.3058924765752049 1.9750502639104066 1.9979615593761866 1.9196380523296896 -1.1743357963756014 2.1659949114156505 -2.0108584831948551 2.1920593424919872 -1.9761172790502792 1.1078084013829115 -0.83627657561404312 -1.1290768210163036 -1.0566298792440514
decision_type=2 2 2 2 2 2 2 2 2 2 2 2 2 2 2 2 2 2 2 2 2 2 2 2 2 2 2 2 2 2
left_child=25 2 3 -2 5 -5 -7 8 -8 -10 11 23 13 -13 15 16 -15 21 29 26 -4 -18 -3 -11 -19 -1 27 -9 -29 -16
right_child=1 22 20 4 -6 6 7 19 9 10 -12 12 -14 14 18 -17 17 24 -20 -21 -22 -23 -24 -25 -26 -27 -28 28 -30 -31
leaf_value=0.020549551132371873 0.01260560229420662 0.010404748721517247 0.0067092592582042093 0.012939218615195645 0.01429178561601374 0.017078754185019314 0.010967232245151129 0.014841161903582121 0.010574801030911898 0.016810101761736654 0.0095511201587883208 0.015481357353848297 0.008950094028543203 0.0073507826916779139 0.0099784966285635796 0.011937472511486837 -0.010686237812042237 -0.0065122624601775068 0.014613782207171123 0.01810504843791326 0.019254072145982223 -0.018888070151994105 0.023398728143601194 0.00015335997282448464 0.018838190967622011 0.010189208521304794 0.022892904043197632 0.017823000748952232 -0.0067410700513931103 -0.0073252445820606114
leaf_weight=177 344 417 231 268 252 148 214 57 190 88 185 77 156 79 41 83 255 246 75 111 187 2280 105 118 23 381 25 21 167 198
leaf_count=177 344 417 231 268 252 148 214 57 190 88 185 77 156 79 41 83 255 246 75 111 187 2280 105 118 23 381 25 21 167 198
internal_value=0 -0.000988971 -0.00218392 -0.00324746 -0.00426546 -0.00518151 -0.00618551 -0.00691981 -0.00815307 -0.00915252 -0.0101126 -0.0110908 -0.0121674 -0.0131487 -0.0138208 -0.0153024 -0.0160867 -0.016747 0.000174375 0.00702481 0.0123214 -0.018063 0.0130185 0.00726886 -0.00434475 0.0134756 0.0024696 0.000385594 -0.00399721 -0.00435682
internal_weight=0 6641 6119 5701 5357 5105 4837 4689 4308 4094 3904 3719 3513 3357 3280 2966 2883 2804 314 381 418 2535 522 206 269 558 270 245 188 239
internal_count=7199 6641 6119 5701 5357 5105 4837 4689 4308 4094 3904 3719 3513 3357 3280 2966 2883 2804 314 381 418 2535 522 206 269 558 270 245 188 239
is_linear=0
shrinkage=0.05


Tree=3
num_leaves=31
num_cat=0
split_feature=6 6 1 5 4 4 8 3 3 5 1 0 2 2 7 7 8 0 6 6 8 3 5 5 3 2 5 1 8 1
split_gain=39.776 38.1619 33.6048 29.7063 27.8068 29.3197 28.1612 25.2549 26.2505 24.02 22.3845 21.0185 18.111 17.8847 18.1152 14.3172 14.1237 12.9595 9.37341 8.10498 7.64035 7.71487 8.15869 8.88693 7.49987 6.04067 5.91089 5.50128 5.48024 5.29004
threshold=-1.068102989744897 1.3345420493186908 1.4483727055294717 -1.1958760830073323 -1.6086880335428708 1.6644107263759174 1.5199302734535525 -1.6160578739800178 1.7850588987957963 1.2875767244203942 -1.4468219096278652 1.9979615593761866 -2.0200755566907991 1.4543685178623946 2.0354328378467499 -1.8287034425579092 -1.947873822484657 -1.7639532418766828 -1.9063925825141017 2.0009263369311765 -1.2144449130492803 1.1399646229883988 -0.94588500833636313 1.2875767244203942 -1.2349689616502497 1.3908983576208003 -2.1206706095165342 -2.0558301106929826 1.9750502639104066 -0.78811586189136784
decision_type=2 2 2 2 2 2 2 2 2 2 2 2 2 2 2 2 2 2 2 2 2 2 2 2 2 2 2 2 2 2
left_child=18 2 3 26 -5 6 7 -6 9 10 27 12 -12 14 15 -14 -17 -18 -1 -3 -20 22 -22 24 -24 -26 -2 -9 -8 -28
right_child=1 19 -4 4 5 -7 28 8 -10 -11 11 -13 13 -15 -16 16 17 -19 20 -21 21 -23 23 -25 25 -27 29 -29 -30 -31
leaf_value=0.01866812099770802 0.019374778225452086 0.0066963111547132335 0.010866299982694129 0.01168330298761093 0.0087970517214062145 0.012150719833834736 0.0030021738140813769 0.015752708407179003 0.013784303702414036 0.0017366457701653475 0.014989981109445747 0.015350856391283182 0.0071115025166255327 0.0012347729338539973 0.014418519887269714 0.009453539607616572 0.0032834770230503827 -0.017572967204861231 0.019537231152497451 0.019373346917461932 0.014088294918375805 0.017950697124004364 0.014776569029741123 0.017976509491282124 -0.006620661412154772 0.014090207754037319 0.01366619222587155 -0.001411034955234124 0.01797015509097883 0.0017991244677425357
leaf_weight=205 79 480 417 229 206 207 155 62 120 387 55 65 67 180 51 52 77 2277 103 171 133 100 57 62 362 39 124 189 101 387
leaf_count=205 79 480 417 229 206 207 155 62 120 387 55 65 67 180 51 52 77 2277 103 171 133 100 57 62 362 39 124 189 101 387
internal_value=0 -0.00141964 -0.00277762 -0.00389981 -0.00528874 -0.00620301 -0.00714249 -0.00822717 -0.00920623 -0.0100031 -0.0114806 -0.0127524 -0.0134145 -0.0139923 -0.0150782 -0.0156865 -0.0163214 -0.0168907 0.00906481 0.0100262 0.00676495 0.00501787 0.00303735 0.000210859 -0.0021941 -0.00460639 0.00664657 0.00282861 0.00890751 0.0046788
internal_weight=0 6138 5487 5070 4480 4251 4044 3788 3582 3462 3075 2824 2759 2704 2524 2473 2406 2354 1061 651 856 753 653 520 458 401 590 251 256 511
internal_count=7199 6138 5487 5070 4480 4251 4044 3788 3582 3462 3075 2824 2759 2704 2524 2473 2406 2354 1061 651 856 753 653 520 458 401 590 251 256 511
is_linear=0
shrinkage=0.05


Tree=4
num_leaves=31
num_cat=0
split_feature=6 6 1 7 7 2 1 2 3 0 0 3 9 4 4 9 5 5 6 2 1 3 3 5 5 9 7 4 7 7
split_gain=35.8978 34.6327 33.2637 28.6667 29.8722 27.1655 26.9937 25.7206 22.583 22.0255 24.5263 20.5935 15.8474 16.0764 15.6281 13.1311 11.758 10.0041 8.45951 7.08451 6.51694 6.19775 6.81692 6.80173 7.65314 6.51768 5.89552 5.85262 5.38033 4.66908
threshold=-1.068102989744897 1.5185905268135544 1.3233692765353531 -1.6172836899885923 1.4545095116676892 1.4543685178623946 -1.9051607583047712 -1.3081708758842296 -1.5835338161536572 1.5647789620690293 -1.403343780609867 1.6335719356840748 -1.772856141381278 -1.9038904489785113 1.7125076579692677 1.3805168128925904 -2.1206706095165342 1.8917565812282495 -1.9063925825141017 -2.0200755566907991 2.1659949114156505 1.1078084013829115 -1.2349689616502497 -1.3792875154188819 1.2875767244203942 1.2876883366750345 -1.1566138185929085 -0.65516912538132943 1.0054409018493347 2.0354328378467499
decision_type=2 2 2 2 2 2 2 2 2 2 2 2 2 2 2 2 2 2 2 2 2 2 2 2 2 2 2 2 2 2
left_child=18 2 3 -2 5 6 -5 19 -9 10 -10 12 -12 -14 15 16 -15 -18 -1 -8 27 22 -20 -24 25 26 -25 -4 -28 -6
right_child=1 -3 20 4 29 -7 7 8 9 -11 11 -13 13 14 -16 -17 17 -19 21 -21 -22 -23 23 24 -26 -27 28 -29 -30 -31
leaf_value=0.017734715240757641 0.012619960487816585 0.011909042654983831 0.01641625248584427 0.015620936701695124 0.0057888537462128971 0.0088639891432850271 0.017131995903641988 0.0069956352084463089 0.0039393883325018978 0.0059884517611760021 0.0080636115067384464 0.0071560481080302487 0.0090403586045488139 0.01321074590086937 0.0049725363700135247 -0.0033688722062954861 -0.016957801161415757 0.0029359168502000664 0.016943800765456579 0.0011334795037649835 0.021564382576680446 0.017119206755589218 0.016581031019929089 0.012865917146205903 0.016768309740877865 0.014821979057575978 -0.0081863460237089607 0.0034975486966940736 0.0069590536463591786 0.018398670923142207
leaf_weight=205 257 456 119 132 244 303 89 217 265 212 88 135 77 34 103 226 2276 65 99 311 91 117 79 50 67 56 316 333 72 105
leaf_count=205 257 456 119 132 244 303 89 217 265 212 88 135 77 34 103 226 2276 65 99 311 91 117 79 50 67 56 316 333 72 105
internal_value=0 -0.00134866 -0.00241263 -0.00365619 -0.004513 -0.00559824 -0.00663419 -0.00735104 -0.00865382 -0.00962938 -0.0106422 -0.0119286 -0.0128266 -0.0134876 -0.0141291 -0.0148856 -0.0159815 -0.0164054 0.00861157 0.00469315 0.00935649 0.0064267 0.00473384 0.00284511 0.00091082 -0.00123989 -0.00329346 0.00689871 -0.00537586 0.00958264
internal_weight=0 6138 5682 5139 4882 4533 4230 4098 3698 3481 3269 3004 2869 2781 2704 2601 2375 2341 1061 400 543 856 739 640 561 494 438 452 388 349
internal_count=7199 6138 5682 5139 4882 4533 4230 4098 3698 3481 3269 3004 2869 2781 2704 2601 2375 2341 1061 400 543 856 739 640 561 494 438 452 388 349
is_linear=0
shrinkage=0.05


Tree=5
num_leaves=31
num_cat=0
split_feature=2 9 9 3 7 3 5 1 5 1 4 0 2 0 4 8 7 8 3 9 3 4 0 0 5 9 8 5 5 5
split_gain=41.2993 38.0573 39.1387 33.1601 29.1185 26.6638 24.3762 22.3153 22.8825 21.783 21.8288 18.0869 18.0916 17.9226 16.0926 16.5966 16.0604 14.713 7.32811 7.26731 6.73228 5.67983 5.68151 6.12359 5.42444 5.15323 5.06802 5.15219 4.73947 5.02708
threshold=1.4543685178623946 1.3058924765752049 -1.1912353332435832 -1.1210228968745428 -1.4866636100463173 1.7164181690952407 1.2593177989872613 1.7477487129078526 -1.5559893583685456 -2.0558301106929826 -1.6086880335428708 -1.6567350688983644 -1.6527341372514259 1.9979615593761866 2.1558910873936878 -2.0235865036437795 1.571245893791174 2.0726363180084948 -1.9054657707152787 -1.8290787904760648 1.1545118647318413 1.2765748948135853 1.1809294993850517 -1.2067024098136416 -1.4457570555486363 1.8029050042667898 1.4935393438200988 0.85615811518864016 -1.1143640420493088 1.2875767244203942
decision_type=2 2 2 2 2 2 2 2 2 2 2 2 2 2 2 2 2 2 2 2 2 2 2 2 2 2 2 2 2 2
left_child=1 2 19 18 -5 6 7 8 -6 -10 -11 -12 -13 14 15 -14 17 -17 -4 -1 24 22 23 -20 -21 -3 27 -26 -25 -30
right_child=-2 25 3 4 5 -7 -8 -9 9 10 11 12 13 -15 -16 16 -18 -19 21 20 -22 -23 -24 28 26 -27 -28 -29 29 -31
leaf_value=0.015982196229394129 0.013717641629652628 0.0069874424840967123 0.016107060995541121 0.0094222047924995417 0.0065388707479216018 0.012532986641603676 0.0044307761771935862 0.011052099920862871 0.018940317943211524 0.00667228599090174 0.0057361511432606239 0.0037146540963725683 0.013126067444682123 0.012203419575324427 0.017513970304758122 -0.016915233927663021 0.00041815956302036512 0.012263109365647491 0.01778086770412534 0.019822737743908709 0.019163488944371542 0.018035914663408623 0.01726294261104656 0.010768969729542733 -0.0034098471269795767 0.016024883368537447 0.02058886978775263 0.0092605720556110417 -0.0067053555452323459 0.013631333586047678
leaf_weight=217 518 453 152 310 212 177 399 139 62 166 138 157 52 65 39 2387 151 44 43 44 75 61 53 60 304 242 32 109 286 34
leaf_count=217 518 453 152 310 212 177 399 139 62 166 138 157 52 65 39 2387 151 44 43 44 75 61 53 60 304 242 32 109 286 34
internal_value=0 -0.000938979 -0.00222851 -0.00379969 -0.00536435 -0.00645887 -0.00729695 -0.00859246 -0.00937869 -0.0104135 -0.0109824 -0.0119487 -0.0127917 -0.0137382 -0.014369 -0.0148411 -0.0154043 -0.0163871 0.00641488 0.00820647 0.00521474 0.00367146 0.00183064 -0.000102957 0.00307536 0.0101343 0.00141944 -6.58382e-05 -0.00212665 -0.00454458
internal_weight=0 6663 5968 5187 4498 4188 4011 3612 3473 3261 3199 3033 2895 2738 2673 2634 2582 2431 689 781 564 537 476 423 489 695 445 413 380 320
internal_count=7181 6663 5968 5187 4498 4188 4011 3612 3473 3261 3199 3033 2895 2738 2673 2634 2582 2431 689 781 564 537 476 423 489 695 445 413 380 320
is_linear=0
shrinkage=0.05


Tree=6
num_leaves=31
num_cat=0
split_feature=2 9 9 6 2 8 0 1 7 1 6 8 7 4 0 4 5 5 9 2 4 9 5 8 5 7 8 7 1 1
split_gain=37.2726 34.3467 35.3227 31.1313 28.4998 27.2125 25.6538 24.2197 23.3644 22.8881 22.0868 21.1648 20.3787 18.3369 18.0843 17.1542 13.826 13.5886 6.55875 5.34177 5.26509 4.65934 4.51978 4.56785 4.47203 4.75923 4.53141 4.2889 4.01241 3.9418
threshold=1.4543685178623946 1.3058924765752049 -1.1912353332435832 -1.5950245957994691 -1.3081708758842296 -1.516674908119046 -1.6567350688983644 1.7930548355184037 -1.7328863810985433 -1.847138134057021 2.0009263369311765 1.8415377630942922 1.5349609440815486 2.0617720377720405 1.9979615593761866 -1.6086880335428708 1.8917565812282495 -2.1206706095165342 -1.8290787904760648 -2.0200755566907991 1.417116224759146 1.6466369314542553 -1.4250306576733596 1.4935393438200988 1.1844505778516117 0.90676629794562402 -0.95747263863485366 2.1212858850777927 1.2528326689116376 -1.0076767091899204
decision_type=2 2 2 2 2 2 2 2 2 2 2 2 2 2 2 2 2 2 2 2 2 2 2 2 2 2 2 2 2 2
left_child=1 2 18 -4 19 -6 -7 8 -8 -10 11 12 13 14 15 -11 17 -17 -1 -5 -19 -3 -20 24 25 26 -24 -14 29 -21
right_child=-2 21 3 4 5 6 7 -9 9 10 -12 -13 27 -15 -16 16 -18 20 22 28 -22 -23 23 -25 -26 -27 -28 -29 -30 -31
leaf_value=0.015183086349942169 0.013031759561834189 0.0055159457114046023 0.011941965701359728 0.016659589070026008 0.0090502147803773417 0.010293922450357271 0.010776948799689611 0.012996377249558766 0.013308393127388424 0.0036038408747741156 0.015114480782957638 0.011632692336457447 -0.00020422305573116652 0.015965907382113592 0.012783399268762388 0.012995656804983005 0.0070059082193954575 -0.015912594596272308 0.018709541857242586 0.014430053898116999 -0.0070183438950040368 0.013703866098022736 0.011153181234620653 0.020174623790540195 0.013626252901222971 0.012704053048103577 -0.0047727328318525365 0.016650143593549729 0.0194891657876341 7.1149611392536688e-05
leaf_weight=217 518 346 303 107 286 206 150 135 108 140 85 103 154 56 67 43 74 2551 54 57 178 349 53 38 72 63 284 50 38 296
leaf_count=217 518 346 303 107 286 206 150 135 108 140 85 103 154 56 67 43 74 2551 54 57 178 349 53 38 72 63 284 50 38 296
internal_value=0 -0.00089203 -0.00211708 -0.00360971 -0.00457452 -0.00586154 -0.00690172 -0.00781141 -0.00855869 -0.00936233 -0.0100617 -0.0106881 -0.0113821 -0.0123866 -0.0129067 -0.0134831 -0.0143236 -0.014893 0.00779614 0.00676052 -0.0153325 0.00962758 0.00495401 0.00349754 0.00215489 9.00446e-05 -0.00226806 0.00392675 0.00405156 0.00238973
internal_weight=0 6663 5968 5187 4884 4386 4100 3894 3759 3609 3501 3416 3313 3109 3053 2986 2846 2772 781 498 2729 695 564 510 472 400 337 204 391 353
internal_count=7181 6663 5968 5187 4884 4386 4100 3894 3759 3609 3501 3416 3313 3109 3053 2986 2846 2772 781 498 2729 695 564 510 472 400 337 204 391 353
is_linear=0
shrinkage=0.05


Tree=7
num_leaves=31
num_cat=0
split_feature=2 3 3 6 1 6 5 5 4 4 7 7 1 9 2 0 0 1 9 3 9 5 5 3 4 7 0 5 9 9
split_gain=33.6385 33.439 36.3041 26.3833 25.0286 25.859 24.2751 28.5485 21.076 20.2511 17.935 17.6322 17.4811 17.0819 14.4179 13.7272 13.5164 7.6498 6.69109 6.15318 4.89799 5.04329 5.72244 4.88927 4.84543 4.83064 4.73097 4.23651 4.26833 5.1736
threshold=1.4543685178623946 -1.1210228968745428 1.3400920915848606 -1.5950245957994691 1.7030892712650416 1.9196380523296896 1.2593177989872613 -1.2679338252313324 -1.7976073560281189 1.7125076579692677 -1.968196023778807 1.9763104847007518 -1.2942253638982797 -1.9617618863867656 -1.5169661900654992 -1.7639532418766828 1.9979615593761866 -2.0558301106929826 1.8712724103560381 -1.9054657707152787 1.1558928514418412 1.2875767244203942 -0.69098743589879252 1.7850588987957963 1.3952325518464188 1.674115418637915 -1.0743756951201999 -2.1206706095165342 1.7223434772467527 -1.110175162022762
decision_type=2 2 2 2 2 2 2 2 2 2 2 2 2 2 2 2 2 2 2 2 2 2 2 2 2 2 2 2 2 2
left_child=1 19 3 -3 5 6 7 26 -9 10 -10 12 17 -14 -15 -16 18 -12 -17 -1 21 22 -21 -4 25 -24 -5 -28 29 -29
right_child=-2 2 23 4 -6 -7 -8 8 9 -11 11 -13 13 14 15 16 -18 -19 -20 20 -22 -23 24 -25 -26 -27 27 28 -30 -31
leaf_value=0.016197289276809593 0.012380171469394765 0.010843117480658219 0.0058181860997126656 0.01712447265163064 0.012277007040589356 0.015050894265470941 0.0049651191182146772 0.010794358220365313 0.013394939465613305 0.0087569258301644706 0.01713476951392192 0.013084271432537781 0.010702240815410366 0.00012277504331187198 0.0050379217167695368 -0.015790316920774254 0.0090178661562245466 -0.0036546468845943905 0.0023393893757691748 0.01084386351469316 0.016332155420924678 0.017552207154221833 -0.0040663822726079617 0.015227737507472437 0.017598614277261677 0.020169878141446551 0.015276678704789708 0.013439884444452682 0.022903342321515086 -0.003601137882492448
leaf_weight=191 518 301 325 64 215 153 466 135 79 148 53 76 77 190 90 2390 58 268 52 152 99 64 314 240 33 22 56 53 20 279
leaf_count=191 518 301 325 64 215 153 466 135 79 148 53 76 77 190 90 2390 58 268 52 152 99 64 314 240 33 22 56 53 20 279
internal_value=0 -0.000847428 -0.00222464 -0.00352705 -0.00440585 -0.00516786 -0.00584715 -0.00707967 -0.00858927 -0.009341 -0.0101446 -0.0107161 -0.0112853 -0.0125283 -0.0131717 -0.014147 -0.0148377 -0.000222126 -0.0154043 0.00826265 0.00604699 0.00430642 0.0026793 0.00981516 -0.000683882 -0.00247948 0.00448543 0.00250284 0.000470634 -0.000880734
internal_weight=0 6663 5788 5223 4922 4707 4554 4088 3616 3481 3333 3254 3178 2857 2780 2590 2500 321 2442 875 684 585 521 565 369 336 472 408 352 332
internal_count=7181 6663 5788 5223 4922 4707 4554 4088 3616 3481 3333 3254 3178 2857 2780 2590 2500 321 2442 875 684 585 521 565 369 336 472 408 352 332
is_linear=0
shrinkage=0.05


Tree=8
num_leaves=31
num_cat=0
split_feature=8 8 6 6 3 3 4 4 1 1 7 2 0 0 7 9 2 8 9 6 3 4 7 4 0 3 3 3 0 0
split_gain=31.5234 30.4819 28.067 25.2802 26.1218 23.1195 19.1126 20.1033 15.3816 15.4224 14.273 13.3839 14.2095 13.1501 9.59425 9.71485 8.98059 7.50137 6.44326 5.15083 5.12765 4.95772 4.92366 5.02388 4.81893 5.56286 5.89393 4.42276 4.28823 4.27459
threshold=-1.48332983441539 1.2038112303090056 -1.2946485164057433 1.4078874731852096 -1.1874851835756901 1.3400920915848606 -1.1637133892161848 1.6644107263759174 -1.7902072260904083 1.7930548355184037 2.0354328378467499 -1.9326756717686393 1.7371978101180017 -1.6567350688983644 -1.968196023778807 -1.9617618863867656 1.4543685178623946 1.9750502639104066 1.7223434772467527 1.9196380523296896 -1.9054657707152787 1.0494174239843626 -1.3295458571566938 -1.9038904489785113 -1.3307551615274853 -1.1439730476696666 1.1211873147434483 1.8347535039623339 1.3273209673300115 -1.3018120239176516
decision_type=2 2 2 2 2 2 2 2 2 2 2 2 2 2 2 2 2 2 2 2 2 2 2 2 2 2 2 2 2 2
left_child=-1 2 -2 4 20 6 22 8 -8 10 11 -10 13 -13 -15 -16 18 21 -17 -5 -4 24 -6 -24 -3 -26 -27 28 -7 -22
right_child=1 17 3 19 5 27 7 -9 9 -11 -12 12 -14 14 15 16 -18 -19 -20 -21 29 -23 23 -25 25 26 -28 -29 -30 -31
leaf_value=0.012120819532659633 0.0082114818446363258 0.016589298021437517 0.014109057445320296 0.0038035599940076138 0.017396934807300569 -6.3681184746730273e-05 0.0093773986040442091 0.0079680063118592152 0.0090551462254406506 0.0092909246975300362 0.013860129779678279 0.0038770463286327719 0.0040844653611597807 0.0083410603158614229 0.0066586907824565632 -0.015348215252431466 -0.0023589944491138708 0.017602170173993369 -0.0011572808206799518 0.01458651654768822 0.01976480645792825 0.01626880601979792 0.011102046461209008 -0.0021374068096464065 0.01529255857769872 -0.0022277983700906908 0.014205561624839902 0.013150631969989236 0.021700477302074434 0.0015161612297895661
leaf_weight=507 594 67 139 311 50 239 108 181 81 102 59 119 138 51 58 2204 154 167 83 172 35 96 92 324 71 370 64 134 25 386
leaf_count=507 594 67 139 311 50 239 108 181 81 102 59 119 138 51 58 2204 154 167 83 172 35 96 92 324 71 370 64 134 25 386
internal_value=0 -0.000811667 -0.00208949 -0.00325609 -0.00436161 -0.0057135 -0.00691315 -0.00823737 -0.00916647 -0.00982332 -0.0104849 -0.0109822 -0.0115604 -0.0123694 -0.0131275 -0.0135657 -0.0140462 0.00812394 -0.0148332 0.00764345 0.00578244 0.00575439 0.00257235 0.000790549 0.00398973 0.0023181 0.000195554 0.00575245 0.00199732 0.00303327
internal_weight=0 6674 5839 5245 4762 4202 3804 3338 3157 3049 2947 2888 2807 2669 2550 2499 2441 835 2287 483 560 668 466 416 572 505 434 398 264 421
internal_count=7181 6674 5839 5245 4762 4202 3804 3338 3157 3049 2947 2888 2807 2669 2550 2499 2441 835 2287 483 560 668 466 416 572 505 434 398 264 421
is_linear=0
shrinkage=0.05


Tree=9
num_leaves=31
num_cat=0
split_feature=2 9 9 7 3 7 2 8 8 1 1 0 0 6 3 5 6 5 3 9 2 5 9 5 8 7 7 2 3 0
split_gain=29.148 28.7476 30.1325 24.8265 24.1729 23.0684 21.6707 19.3973 17.8638 18.0556 17.2895 16.7468 16.9136 15.6088 13.079 12.4281 11.82 10.2654 5.87357 5.19699 4.46017 4.01257 4.00718 3.99044 4.04761 4.08732 4.60129 3.96258 3.70453 3.69737
threshold=1.4543685178623946 1.3058924765752049 -1.1912353332435832 -1.4866636100463173 -1.5835338161536572 1.5349609440815486 -1.3081708758842296 -1.5676563431536465 1.8415377630942922 -2.0558301106929826 1.8953346044404797 -1.6567350688983644 1.5984787483822454 2.0806880667023666 1.9383184452293774 1.8245370629390525 -1.7354131770569954 -2.2616789579400991 1.1545118647318413 -1.8290787904760648 -2.0200755566907991 -1.4457570555486363 2.0691358116462246 1.4577011852104793 1.4935393438200988 0.90676629794562402 -0.80573431029197662 -0.61314517319693052 0.90615899155871127 1.9979615593761866
decision_type=2 2 2 2 2 2 2 2 2 2 2 2 2 2 2 2 2 2 2 2 2 2 2 2 2 2 2 2 2 2
left_child=1 2 18 -4 -5 6 20 -8 9 -9 11 -11 13 14 15 16 -13 -18 19 -1 -6 -21 27 24 25 26 -23 -3 -22 -14
right_child=-2 22 3 4 5 -7 7 8 -10 10 -12 12 29 -15 -16 -17 17 -19 -20 21 28 23 -24 -25 -26 -27 -28 -29 -30 -31
leaf_value=0.012653852354835821 0.011521212825673888 0.014430924582070319 0.0093189113478358461 0.0098848688811586614 0.014416689433894314 0.0082958499872963568 0.0071754282059734824 0.016721306587843335 0.011324233953890048 0.0060409157519127916 0.011847325414419175 0.0034245681126140858 -0.001931861573113845 0.014324468191255602 0.0095773835392559282 0.0059973512572803721 0.015245441595713297 -0.01416868008574227 0.018126005143205694 0.017219114066524942 -0.00069378321941900435 0.0062985117591562723 0.017934242223651666 0.016456992477178575 0.017901497051633641 0.010598475523924424 -0.0073511470988584697 0.0049186998499053175 0.012368563014794798 0.01257686848311048
leaf_weight=185 518 145 363 285 91 299 219 68 114 157 94 103 104 57 68 87 30 2635 107 44 269 84 103 40 29 59 233 447 68 76
leaf_count=185 518 145 363 285 91 299 219 68 114 157 94 103 104 57 68 87 30 2635 107 44 269 84 103 40 29 59 233 447 68 76
internal_value=0 -0.000791867 -0.00191263 -0.00329124 -0.00424014 -0.00512703 -0.0060736 -0.00727136 -0.00815192 -0.00879011 -0.0092987 -0.00989795 -0.0106898 -0.0115889 -0.0120942 -0.0126104 -0.0131952 -0.0138376 0.00724338 0.00551572 0.00459428 0.0028152 0.00883219 0.00139099 -9.70094e-05 -0.00148519 -0.0037342 0.00724855 0.00194194 0.00419405
internal_weight=0 6663 5968 5187 4824 4539 4240 3812 3593 3479 3411 3317 3160 2980 2923 2855 2768 2665 781 674 428 489 695 445 405 376 317 592 337 180
internal_count=7181 6663 5968 5187 4824 4539 4240 3812 3593 3479 3411 3317 3160 2980 2923 2855 2768 2665 781 674 428 489 695 445 405 376 317 592 337 180
is_linear=0
shrinkage=0.05


Tree=10
num_leaves=31
num_cat=0
split_feature=8 8 4 4 0 5 5 0 7 2 2 1 1 9 9 7 3 3 2 3 1 7 7 7 7 8 3 7 3 7
split_gain=32.3405 30.5046 25.8739 28.465 24.579 22.464 24.1894 18.092 17.3993 15.284 15.5803 12.4044 12.8395 12.8912 12.2281 10.9259 9.54083 6.86153 4.92378 4.76824 5.61531 4.71212 4.54098 4.92194 4.44889 4.34425 4.50405 4.80489 4.8734 4.31698
threshold=-1.3063238201083924 1.3222912538374152 -1.4977542859511399 1.5585577549352096 1.4961394247881472 -1.2435874004241103 1.4080547798760399 -1.691609655841037 -1.4866636100463173 1.7702413081245838 -1.3309836900836711 2.1659949114156505 -2.0558301106929826 1.8712724103560381 -1.488103211430748 2.1212858850777927 2.4088090157318534 -1.5835338161536572 -2.0200755566907991 1.3008505373385373 1.3986533397337342 0.84458075589914905 -1.353378696713929 1.1321269938898977 -2.0261032275821482 1.9750502639104066 1.0684704997786632 1.176829327274669 -0.77065464490585533 0.78966328122815022
decision_type=2 2 2 2 2 2 2 2 2 2 2 2 2 2 2 2 2 2 2 2 2 2 2 2 2 2 2 2 2 2
left_child=-1 2 -2 4 5 22 7 -7 24 10 18 12 -12 14 21 16 17 -16 -10 -19 -21 -14 -4 -24 -9 26 27 28 -3 -20
right_child=1 25 3 -5 -6 6 -8 8 9 -11 11 -13 13 -15 15 -17 -18 19 29 20 -22 -23 23 -25 -26 -27 -28 -29 -30 -31
leaf_value=0.010565774391849716 0.010394021472648571 0.01211019971416992 0.018783139809966088 0.010533681024885711 0.0087998813957577138 0.0078592643938600066 0.0064233324589223779 0.015224886770759311 0.012688939424528593 0.0074805255399809957 0.012514785464320864 0.014423759623120229 -0.004217474101757517 0.0083957446882357966 -0.0028210786316129896 0.011905081500840742 0.018553465216056161 -0.015082759389716588 -0.0062863423448541889 -0.0098575263201254211 0.017988696172833444 0.014600028478822046 0.0011932961860807931 0.01600266163165753 0.0004476748287359024 0.015957805168415821 0.019087379542179407 0.017814600323477099 -0.00060982163463320057 0.008878198786387367
leaf_weight=658 380 103 52 358 347 187 349 70 69 135 56 48 147 78 135 43 23 2225 184 191 20 43 410 65 187 168 64 62 280 63
leaf_count=658 380 103 52 358 347 187 349 70 69 135 56 48 147 78 135 43 23 2225 184 191 20 43 410 65 187 168 64 62 280 63
internal_value=0 -0.0010632 -0.0022232 -0.00309732 -0.00404912 -0.00498188 -0.00618847 -0.00731591 -0.00807936 -0.00901169 -0.00968129 -0.0107905 -0.0111992 -0.0116563 -0.0122096 -0.0130923 -0.0135067 -0.0137935 0.000880305 -0.0144015 -0.00721807 4.12239e-05 0.0047555 0.00321984 0.0044726 0.00898613 0.00668506 0.00490136 0.00281097 -0.00241846
internal_weight=0 6542 5865 5485 5127 4780 4253 3904 3717 3460 3325 3009 2961 2905 2827 2637 2594 2571 316 2436 211 190 527 475 257 677 509 445 383 247
internal_count=7200 6542 5865 5485 5127 4780 4253 3904 3717 3460 3325 3009 2961 2905 2827 2637 2594 2571 316 2436 211 190 527 475 257 677 509 445 383 247
is_linear=0
shrinkage=0.05


Tree=11
num_leaves=31
num_cat=0
split_feature=8 8 4 4 6 6 1 1 3 3 7 2 7 2 5 9 9 6 5 6 5 7 2 9 5 5 9 3 5 3
split_gain=29.1873 27.5304 23.6034 25.2276 21.8788 24.1985 15.6953 15.5783 11.5078 12.6607 9.59054 9.64785 8.16164 8.14046 7.49433 7.13576 6.6649 6.612 6.20589 5.86085 5.45762 5.6773 5.2958 5.20914 5.38783 5.46351 5.23551 5.67259 5.05316 4.75224
threshold=-1.3063238201083924 1.3222912538374152 -1.6514964342170326 1.5585577549352096 -1.068102989744897 1.0330286287155508 -1.4927644270402192 1.3649588885749895 -0.95910291733072084 1.9933882860571657 2.0354328378467499 -2.2363671574486763 -1.968196023778807 1.9393586907158715 1.938749928999395 -1.772856141381278 1.6151449204867963 -1.9063925825141017 -1.7909811109102824 1.9196380523296896 1.2416743757800999 -1.4866636100463173 1.0709838915141072 -1.3203492735710016 1.3810600356981031 -1.4984210530854765 1.266316469412395 1.444854942996826 -0.99429820667556112 -2.0108584831948551
decision_type=2 2 2 2 2 2 2 2 2 2 2 2 2 2 2 2 2 2 2 2 2 2 2 2 2 2 2 2 2 2
left_child=-1 2 -2 4 17 6 -6 8 29 10 11 -10 -13 14 15 -14 18 -4 -17 23 21 -19 28 -7 25 -25 27 -27 -23 -8
right_child=1 -3 3 -5 5 19 7 -9 9 -11 -12 12 13 -15 -16 16 -18 20 -20 -21 -22 22 -24 24 -26 26 -28 -29 -30 -31
leaf_value=0.010037485584843124 0.011846090128852262 0.0085368224753939077 0.013474577546119691 0.01000699699341252 0.0054634144491994916 0.015016426071524619 0.0099120593030158789 0.0029082494314957262 0.015426849267062018 0.011769890716442695 0.010469226033057806 0.0082064783917023595 0.0026452143306601537 0.0059207181135813398 0.0057784352983747218 -3.7948519755632451e-05 -0.0013588101470044681 0.01882581150061206 -0.01441082724625232 0.012398101091384887 0.015376419325669608 0.0080309629254043096 0.010724160263809977 0.017349190001978595 0.016258291900157928 -0.0070175986362512781 0.010773203613465294 0.016306167468428612 -0.0058615755952066851 -0.0038284593768287121
leaf_weight=658 288 677 150 358 247 60 73 321 34 65 53 52 73 63 56 78 112 38 2022 140 66 80 79 34 44 378 57 28 360 456
leaf_count=658 288 677 150 358 247 60 73 321 34 65 53 52 73 63 56 78 112 38 2022 140 66 80 79 34 44 378 57 28 360 456
internal_value=0 -0.00101004 -0.00211204 -0.00283285 -0.0037136 -0.00506348 -0.00671314 -0.00758289 -0.00865642 -0.0100203 -0.0105773 -0.0110253 -0.0113915 -0.0118154 -0.0122927 -0.0127356 -0.0132431 0.00405036 -0.013877 0.00318482 0.00178129 0.000170376 -0.00119553 0.00103863 -0.000511589 -0.00199625 -0.00341686 -0.00540906 -0.00333566 -0.00193232
internal_weight=0 6542 5865 5577 5219 4446 3705 3458 3137 2608 2543 2490 2456 2404 2341 2285 2212 773 2100 741 623 557 519 601 541 497 463 406 440 529
internal_count=7200 6542 5865 5577 5219 4446 3705 3458 3137 2608 2543 2490 2456 2404 2341 2285 2212 773 2100 741 623 557 519 601 541 497 463 406 440 529
is_linear=0
shrinkage=0.05


Tree=12
num_leaves=31
num_cat=0
split_feature=8 8 7 7 0 0 1 1 2 2 3 4 4 5 5 9 9 3 8 5 3 3 7 4 0 3 3 0 5 8
split_gain=26.3459 25.4707 20.3211 22.1148 20.2228 17.3732 14.8655 16.1747 13.388 13.1248 12.091 12.1977 11.7537 10.994 10.8784 8.91108 7.00357 6.2448 4.87496 4.582 4.47369 5.4738 4.47292 4.1519 4.18675 4.12413 4.33699 4.07162 4.19904 3.90726
threshold=-1.26003705680626 1.2038112303090056 -1.353378696713929 1.3404601292275664 1.4392041708431076 -1.2067024098136416 -1.9051607583047712 1.4162772731856792 1.7702413081245838 -2.0200755566907991 1.7850588987957963 -1.7451003791699062 1.5943064852559796 -2.1206706095165342 1.4928148375837029 2.0691358116462246 -1.3500793802418178 -2.2297718909128776 1.9750502639104066 -0.85956673941613737 1.1078084013829115 -0.8902424478471368 -2.0261032275821482 0.88935720616474145 -0.74753085485733994 -1.1874851835756901 1.1399646229883988 -2.1003366627496081 1.3810600356981031 -2.2567451031233943
decision_type=2 2 2 2 2 2 2 2 2 2 2 2 2 2 2 2 2 2 2 2 2 2 2 2 2 2 2 2 2 2
left_child=29 2 22 4 5 25 -7 8 9 -8 11 -11 13 -13 15 16 19 -18 20 -15 21 -3 -2 24 -23 -4 27 -27 -29 -1
right_child=1 18 3 -5 -6 6 7 -9 -10 10 -12 12 -14 14 -16 -17 17 -19 -20 -21 -22 23 -24 -25 -26 26 -28 28 -30 -31
leaf_value=0.018980629538947885 0.015951165184378623 0.012735940288496381 0.016241810954453654 0.0070268077787405212 0.007326544914659951 0.011552680910161112 0.012340019220435941 0.0040721518474240463 0.0082631250182467128 0.0058143148138638471 0.0072505776946609098 0.011817746724073704 0.0028976765219812044 0.010760106596835824 0.00021537295047273028 0.011467301234220849 0.008883202412436085 -0.013710966924405814 0.0147330738426674 -0.0076122693948864201 0.016310719940811399 0.0077559215402362332 0.0047741658339390952 0.011211484049757322 -0.0042124404541907775 0.011976353596832794 0.013789811752962344 -0.0040825985855209952 0.016184181773236821 0.0077287076427913701
leaf_weight=88 116 131 57 483 351 113 74 310 124 124 111 52 162 43 188 39 31 2268 168 161 80 99 392 84 279 59 66 293 28 626
leaf_count=88 116 131 57 483 351 113 74 310 124 124 111 52 162 43 188 39 31 2268 168 161 80 99 392 84 279 59 66 293 28 626
internal_value=0 -0.00100391 -0.0022133 -0.00315668 -0.00421354 -0.00515488 -0.00631077 -0.00685825 -0.00786164 -0.00847629 -0.00896085 -0.00954738 -0.0101944 -0.0109568 -0.0113906 -0.0122489 -0.0126185 -0.0134063 0.00711386 -0.00373966 0.00521188 0.00371457 0.00732639 0.00115656 -0.00107787 0.00357748 0.00195894 -9.58932e-05 -0.00231478 0.0091155
internal_weight=0 6486 5645 5137 4654 4303 3800 3687 3377 3253 3179 3068 2944 2782 2730 2542 2503 2299 841 204 673 593 508 462 378 503 446 380 321 714
internal_count=7200 6486 5645 5137 4654 4303 3800 3687 3377 3253 3179 3068 2944 2782 2730 2542 2503 2299 841 204 673 593 508 462 378 503 446 380 321 714
is_linear=0
shrinkage=0.05


Tree=13
num_leaves=31
num_cat=0
split_feature=6 6 3 3 4 4 1 8 8 7 2 0 0 1 0 0 6 6 2 0 4 2 0 3 5 5 5 1 3 8
split_gain=24.3344 26.7756 18.3966 19.4179 13.1403 13.3581 10.9481 11.1543 10.486 8.28452 7.56709 6.76571 6.03231 6.05511 5.63381 5.7149 5.55386 5.52179 5.16247 5.36977 5.19087 5.10843 5.89966 4.80236 4.7525 4.84712 4.71108 4.57391 5.45655 4.77573
threshold=-1.068102989744897 0.99679839046631502 -0.9218411758538877 1.1211873147434483 1.7125076579692677 -1.1637133892161848 -1.3674596777051733 -1.516674908119046 1.5199302734535525 2.0354328378467499 -2.2363671574486763 -2.0146527396351446 1.4392041708431076 2.1659949114156505 -1.0264918477910634 1.1402557574417524 -1.9063925825141017 1.9196380523296896 0.77373558557065547 1.158810533000157 -1.5334332343314194 -1.3081708758842296 -1.0409941452103586 1.444854942996826 1.3810600356981031 -1.621224933055845 1.4928148375837029 1.2115104604626483 1.9933882860571657 1.3419623940145822
decision_type=2 2 2 2 2 2 2 2 2 2 2 2 2 2 2 2 2 2 2 2 2 2 2 2 2 2 2 2 2 2
left_child=16 2 18 4 5 -4 -7 -8 9 10 -9 -12 13 26 -3 17 -1 23 19 20 -2 -22 -23 24 25 -16 -13 28 29 -5
right_child=1 14 3 27 -6 6 7 8 -10 -11 11 12 -14 -15 15 -17 -18 -19 -20 -21 21 22 -24 -25 -26 -27 -28 -29 -30 -31
leaf_value=0.013970993158467318 0.018080774498613259 0.0147038754935448 0.002030997401531873 -0.0013809407978172764 0.0093356648869548278 0.002459105358404272 0.0044213747233152389 0.014002953902367624 0.0023018708533566932 0.010040352195501328 0.0069580574734852867 -0.012970812042880274 -0.0021215290369757688 0.012424006819725037 0.018412416505402533 0.014186241679875426 0.005065412112041319 0.012344183772802353 0.011186046229826439 0.013581692593939166 0.010736283548176288 0.009761202908479252 -0.0052068431618936817 0.015900935441255572 0.014890054675439994 -0.0025748043168169351 -0.0031656648594004509 0.015650611652715789 0.013154642667967021 0.018381822425307653
leaf_weight=218 38 156 426 415 141 255 160 31 184 50 52 1889 166 25 29 129 889 128 185 85 80 78 422 50 48 536 131 74 97 33
leaf_count=218 38 156 426 415 141 255 160 31 184 50 52 1889 166 25 29 129 889 128 185 85 80 78 422 50 48 536 131 74 97 33
internal_value=0 -0.00123938 -0.00277438 -0.00417849 -0.00561842 -0.00624428 -0.00744213 -0.00838142 -0.00919172 -0.0100939 -0.0105328 -0.0108689 -0.0112882 -0.0120323 0.00591777 0.00442795 0.00681918 0.00283652 0.00375442 0.00179872 0.000178088 -0.000994847 -0.00287183 0.00100096 -0.000214376 -0.00149758 -0.0123349 0.00398652 0.00240277 7.47985e-05
internal_weight=0 6093 5017 4129 3510 3369 2943 2688 2528 2344 2294 2263 2211 2045 1076 920 1107 791 888 703 618 580 500 663 613 565 2020 619 545 448
internal_count=7200 6093 5017 4129 3510 3369 2943 2688 2528 2344 2294 2263 2211 2045 1076 920 1107 791 888 703 618 580 500 663 613 565 2020 619 545 448
is_linear=0
shrinkage=0.05


Tree=14
num_leaves=31
num_cat=0
split_feature=5 5 4 4 6 9 9 7 1 1 0 0 6 2 2 4 3 3 7 7 1 3 3 1 9 1 0 7 9 0
split_gain=21.9698 25.8865 20.3292 19.3947 16.5308 15.3556 14.6011 13.0973 13.0244 12.5865 11.1059 10.0474 9.26265 8.98645 8.26297 7.27659 6.92733 5.29904 4.82505 4.65561 4.30606 4.23241 4.66978 4.11095 4.08108 4.04654 3.82207 3.78717 3.66648 3.59524
threshold=-1.2435874004241103 1.2875767244203942 -1.4977542859511399 1.0824111050348912 -1.5950245957994691 -1.65402576568884 1.5847080102794922 1.7722856853226203 -1.9051607583047712 1.2115104604626483 -1.1804252937904807 1.6440611773744365 1.9196380523296896 -1.7705507193186796 1.82631377103098 1.9933115385364029 2.4088090157318534 -1.6160578739800178 -1.0645124784509739 -2.0261032275821482 -0.86177331604363949 0.99309000006680137 -1.1439730476696666 0.85748584336057421 -1.488103211430748 2.1659949114156505 -1.4306070296972544 -1.1386756554880504 0.96890681055672734 -1.8737254159001371
decision_type=2 2 2 2 2 2 2 2 2 2 2 2 2 2 2 2 2 2 2 2 2 2 2 2 2 2 2 2 2 2
left_child=-1 2 -2 4 -4 -6 7 8 -7 10 21 12 13 -12 16 18 17 -15 -5 -19 27 22 -10 24 -20 -11 -26 -21 -28 -24
right_child=1 -3 3 15 5 6 -8 -9 9 25 11 -13 -14 14 -16 -17 -18 19 23 20 -22 -23 29 -25 26 -27 28 -29 -30 -31
leaf_value=0.0077734295172614534 0.0090765771942501617 0.0082253519238090246 0.0077829895705422945 0.011975975263686408 0.0080861513420592904 0.010403215558755965 0.006746979945235783 0.0082707623133854002 0.012194515663114462 -0.0012422747486005954 0.0038414987474679947 0.0032435159583191773 0.0081238081960967098 -0.0019633182207075489 0.004560378136543127 0.014847916042181983 0.015946045517921448 0.0086617684364318857 0.013209388168846689 0.0031019005676110587 -0.01413010547479714 0.011236814432777464 0.0042320394390065906 0.0084485782355796998 0.015635444462299346 0.013412268652960106 -0.0066965976348346175 -0.010440179999615697 0.0062228862986420143 -0.008917986709125263
leaf_weight=807 381 682 272 105 215 105 225 147 44 369 100 143 66 119 78 134 22 25 41 60 1766 64 71 123 25 54 327 370 66 194
leaf_count=807 381 682 272 105 215 105 225 147 44 369 100 143 66 119 78 134 22 25 41 60 1766 64 71 123 25 54 327 370 66 194
internal_value=0 -0.000981658 -0.00208115 -0.00287873 -0.00416573 -0.00493279 -0.00562873 -0.00636209 -0.00695141 -0.00746544 -0.00856209 -0.00966058 -0.0103687 -0.0108492 -0.0114513 0.00418961 -0.01198 -0.0122426 0.00211069 -0.0127933 -0.0130376 -0.000466219 -0.00289015 0.000330875 -0.00184446 0.000628518 -0.00332103 -0.00855059 -0.00452691 -0.00539477
internal_weight=0 6393 5711 5330 4509 4237 4022 3797 3650 3545 3122 2749 2606 2540 2440 821 2362 2340 687 2221 2196 373 309 582 459 423 418 430 393 265
internal_count=7200 6393 5711 5330 4509 4237 4022 3797 3650 3545 3122 2749 2606 2540 2440 821 2362 2340 687 2221 2196 373 309 582 459 423 418 430 393 265
is_linear=0
shrinkage=0.05


Tree=15
num_leaves=31
num_cat=0
split_feature=0 0 3 3 7 7 1 1 4 8 8 5 6 4 2 6 5 2 7 2 5 4 6 5 8 7 6 5 8 6
split_gain=21.148 23.3419 18.7425 20.3532 16.956 15.5305 14.0177 15.2562 11.1289 10.9479 11.4268 10.9927 10.891 10.8244 9.3789 8.78149 8.40603 7.0697 5.39528 4.48356 4.80937 3.6534 3.61654 3.5367 3.42486 3.53888 3.57001 3.35716 3.25844 3.2082
threshold=1.4392041708431076 -1.3307551615274853 -1.3267666526080955 1.3008505373385373 1.4545095116676892 -1.0489017093108535 -1.9051607583047712 1.4162772731856792 -1.7976073560281189 1.89732008258846 -2.1118218999632452 -1.9090739236470393 1.9196380523296896 1.9266208389531416 -1.7705507193186796 -1.9063925825141017 1.8917565812282495 1.6473301511290066 -1.8287034425579092 -1.3309836900836711 -1.1958760830073323 -1.7451003791699062 -0.37473217955133536 0.88358816473798785 0.6653946817676949 -1.1029366285612572 0.61142555952779387 0.95883766230719003 -1.1953509959851985 -1.1904461714960275
decision_type=2 2 2 2 2 2 2 2 2 2 2 2 2 2 2 2 2 2 2 2 2 2 2 2 2 2 2 2 2 2
left_child=1 24 27 4 5 18 -7 8 -8 10 -10 -12 13 14 -13 -16 17 -17 -4 -20 -21 -22 -18 -23 25 -1 -27 28 -3 -5
right_child=-2 2 3 29 -6 6 7 -9 9 -11 11 12 -14 -15 15 16 22 -19 19 20 21 23 -24 -25 -26 26 -28 -29 -30 -31
leaf_value=0.016780292920090936 0.0095334478066517753 0.016107516142271332 0.010639877666700756 0.016598744438244748 0.0068883167189914126 0.011346139324747997 0.0074263089071444389 0.0040692714275792239 0.014231741753491491 0.0094114083085167291 0.0073134340562866738 0.0046539933964757632 0.0077483501571875349 0.0081050317098454727 0.0066330382440771378 -0.012335608062686861 0.019319658300706321 3.4891906356023364e-05 0.01437063208039926 0.010957856031496134 0.015921766148961108 -0.0072217911163246946 -0.0032063906290093246 0.0037434632707502428 0.014478137979478193 0.0015462510113333381 0.012459536954760552 0.015679342324814102 0.0035590144175858731 0.0048012593511756012
leaf_weight=66 520 59 151 65 344 115 123 320 55 89 103 101 91 82 70 2539 28 121 49 67 23 304 49 97 163 299 100 89 420 508
leaf_count=66 520 59 151 65 344 115 123 320 55 89 103 101 91 82 70 2539 28 121 49 67 23 304 49 97 163 299 100 89 420 508
internal_value=0 -0.000934412 -0.00188501 -0.00277895 -0.00381741 -0.00462204 -0.00585021 -0.00637463 -0.00734306 -0.00788892 -0.00836429 -0.00875461 -0.00929178 -0.00981039 -0.0103156 -0.0108542 -0.0113014 -0.0117729 0.00228488 -5.14271e-05 -0.0014907 -0.0034578 0.0049849 -0.00456935 0.00824159 0.00605545 0.00428141 0.0067616 0.00510465 0.00613954
internal_weight=0 6690 6062 5494 4921 4577 3886 3771 3451 3328 3239 3184 3081 2990 2908 2807 2737 2660 691 540 491 424 77 401 628 465 399 568 479 573
internal_count=7210 6690 6062 5494 4921 4577 3886 3771 3451 3328 3239 3184 3081 2990 2908 2807 2737 2660 691 540 491 424 77 401 628 465 399 568 479 573
is_linear=0
shrinkage=0.05


Tree=16
num_leaves=31
num_cat=0
split_feature=9 9 0 0 2 2 8 8 7 7 5 5 4 6 3 4 9 3 4 6 2 2 3 8 0 7 6 6 3 8
split_gain=21.3902 25.6208 17.1902 16.6958 14.901 16.1222 12.2487 13.8461 10.5009 9.31294 8.73901 8.85359 8.48777 7.17356 7.1617 6.63351 5.87601 4.56971 4.40137 4.37666 4.18114 4.79242 4.11764 4.01391 3.87639 3.83375 3.59991 4.14085 3.59923 3.57894
threshold=-1.488103211430748 0.95641504301186486 -1.3018120239176516 1.5984787483822454 -1.3081708758842296 1.6473301511290066 -1.2797899603203453 1.5199302734535525 -1.653418595573791 1.8045655865206742 1.8917565812282495 -1.3249673847383701 2.0617720377720405 -1.9761172790502792 1.8347535039623339 -1.0315673869217672 1.6466369314542553 -2.2297718909128776 -1.3750287898057738 1.5955466699863694 1.1436893436092401 -0.94522613422918655 1.3899606867326051 -2.2567451031233943 1.0832255704981062 -1.7328863810985433 1.2050251593756023 -1.3935418230711762 -1.1210228968745428 0.6653946817676949
decision_type=2 2 2 2 2 2 2 2 2 2 2 2 2 2 2 2 2 2 2 2 2 2 2 2 2 2 2 2 2 2
left_child=-1 2 29 4 -4 6 23 8 -8 10 11 -10 13 -13 15 26 18 -17 -3 20 21 -20 24 -6 25 -23 27 -15 -25 -2
right_child=1 16 3 -5 5 -7 7 -9 9 -11 -12 12 -14 14 -16 17 -18 -19 19 -21 -22 22 -24 28 -26 -27 -28 -29 -30 -31
leaf_value=0.010154424191537951 0.0038145260264476144 0.015519101183483567 0.0048123648912053989 0.0083818817824842188 0.015986774057149888 0.0081343268332755674 0.0050206427803126778 0.005031887843530365 -0.00060817611671236567 0.0057798612393250987 0.0067946117330383478 0.0080188454040941212 0.010396707116388808 0.01149956254022462 0.0045651935040950777 0.0091141933798789977 0.0109826587222887 -0.012388766245626466 0.010396434139264258 0.016531571249167123 0.011440858498706923 0.016038935241245091 0.01351582960384648 0.012968415193832839 0.0069721488169876937 -0.005853360702854922 0.0071921737170686914 -0.0085045808246907075 -0.0012947875603630738 0.01319332026477371
leaf_weight=469 372 69 439 291 50 226 164 243 289 119 91 53 51 28 76 25 362 2113 95 51 91 21 41 52 83 419 51 340 296 140
leaf_count=469 372 69 439 291 50 226 164 243 289 119 91 53 51 28 76 25 362 2113 95 51 91 21 41 52 83 419 51 340 296 140
internal_value=0 -0.000888823 -0.00234654 -0.00324058 -0.00395926 -0.00486171 -0.00558853 -0.00649841 -0.00732249 -0.00794804 -0.00847213 -0.00893125 -0.00981008 -0.0101938 -0.0105604 -0.0110099 0.00562949 -0.0121373 0.00340207 0.00235829 0.0013945 7.2202e-06 -0.00174274 0.0027398 -0.00293891 -0.0048085 -0.0052572 -0.00698253 0.000836496 0.00637904
internal_weight=0 6741 5509 4997 4706 4267 4041 3643 3400 3236 3117 3026 2737 2686 2633 2557 1232 2138 870 801 750 659 564 398 523 440 419 368 348 512
internal_count=7210 6741 5509 4997 4706 4267 4041 3643 3400 3236 3117 3026 2737 2686 2633 2557 1232 2138 870 801 750 659 564 398 523 440 419 368 348 512
is_linear=0
shrinkage=0.05


Tree=17
num_leaves=31
num_cat=0
split_feature=5 5 6 6 4 4 8 8 1 0 3 7 3 8 2 1 0 0 1 2 2 1 4 0 0 4 4 2 1 3
split_gain=18.4627 23.751 14.4417 14.9075 11.6716 11.5585 11.6255 11.5406 9.6328 7.95526 6.86538 6.29646 6.17039 5.08574 4.93194 4.81076 4.80128 6.00349 4.71394 4.48341 5.53785 4.38699 4.31826 4.12331 4.37686 4.02931 4.49148 3.8923 3.88505 3.84565
threshold=-1.1958760830073323 0.94234136405071223 -1.4785514886735527 1.0330286287155508 1.9266208389531416 -1.5334332343314194 1.3419623940145822 -1.0961507460240107 -1.5713317331445853 1.9979615593761866 -1.2896901173544004 2.1212858850777927 1.1211873147434483 -2.1118218999632452 -2.2363671574486763 1.2340440859390676 -0.99693236758324422 1.1402557574417524 1.3649588885749895 0.79395550916552959 -1.0084017432819381 -1.6788728885282829 -1.5652352183965796 -0.99693236758324422 1.7371978101180017 -0.92955431104754782 1.526370922224521 1.4885530405503913 1.2115104604626483 -1.1874851835756901
decision_type=2 2 2 2 2 2 2 2 2 2 2 2 2 2 2 2 2 2 2 2 2 2 2 2 2 2 2 2 2 2
left_child=-1 2 -2 4 5 -4 7 13 -9 10 28 12 14 -7 -12 19 -5 25 -14 20 -3 -22 -23 -24 -25 -18 -27 29 -10 -15
right_child=1 15 3 16 -6 6 -8 8 9 -11 11 -13 18 27 -16 -17 17 -19 -20 -21 21 22 23 24 -26 26 -28 -29 -30 -31
leaf_value=0.006749832563696892 0.0069772157011783291 0.010293628789227585 0.0053960609520154615 0.012475454237150109 0.010984576143260696 0.014901691967887537 0.003445606842970315 0.0040254865071655795 -0.0035395567701098233 0.010118002311459609 0.012923999343599593 0.0098855944350361834 -0.0059621504256250086 0.012540033419389982 -0.011435894776811804 0.013374407102469527 0.0080876130575888629 0.012926953456675015 0.012744563033706264 0.010213012039661408 0.016417543068528176 0.017002185366370461 0.0077662191018462185 -0.0044047989158578233 0.015254597912232083 -0.0040749357068452291 0.015960354109605154 0.014969535303466461 0.015040122112259269 -0.0044777883580041011
leaf_weight=852 365 174 248 115 117 56 313 162 233 56 21 40 296 37 1967 153 107 96 38 225 40 33 100 503 30 414 30 34 32 323
leaf_count=852 365 174 248 115 117 56 313 162 233 56 21 40 296 37 1967 153 107 96 38 225 40 33 100 503 30 414 30 34 32 323
internal_value=0 -0.00108816 -0.00260593 -0.00334466 -0.00457331 -0.00504537 -0.00576308 -0.00663783 -0.00781468 -0.0085296 -0.00892711 -0.00978327 -0.0101221 0.000802477 -0.0111786 0.00506496 0.00306145 0.00138818 -0.00383384 0.00391442 0.00230399 0.000334872 -0.000631054 -0.00155032 -0.00329827 -0.000622211 -0.0027212 -0.00120147 -0.00129597 -0.00272873
internal_weight=0 6358 5100 4735 3973 3856 3608 3295 2845 2683 2627 2362 2322 450 1988 1258 762 647 334 1105 880 706 666 633 533 551 444 394 265 360
internal_count=7210 6358 5100 4735 3973 3856 3608 3295 2845 2683 2627 2362 2322 450 1988 1258 762 647 334 1105 880 706 666 633 533 551 444 394 265 360
is_linear=0
shrinkage=0.05


Tree=18
num_leaves=31
num_cat=0
split_feature=9 9 0 0 4 4 5 5 7 7 1 3 3 1 6 9 4 2 2 0 2 2 0 6 6 5 6 1 1 6
split_gain=19.2139 22.8736 15.1527 14.9564 12.5485 12.4788 10.9737 11.6819 8.15437 7.76009 7.55397 6.49854 6.33673 5.88883 5.47591 5.30538 5.01162 4.91952 4.89384 4.83387 4.81202 4.49599 4.45905 4.36495 4.29995 4.00328 3.883 3.94423 3.96544 3.98211
threshold=-1.488103211430748 0.95641504301186486 -1.3018120239176516 1.1809294993850517 1.526370922224521 -1.6086880335428708 -1.1748213767200113 1.2875767244203942 1.9763104847007518 -1.8287034425579092 2.0913018395570826 1.7164181690952407 -1.6160578739800178 -1.4468219096278652 2.1469261789250695 2.0691358116462246 -1.2124109547032742 1.7702413081245838 1.1436893436092401 1.46772098193823 -2.0200755566907991 -0.94522613422918655 1.9413663996434691 -2.1749729392449009 1.2050251593756023 1.4928148375837029 1.5955466699863694 1.4162772731856792 -1.4927644270402192 -0.86279889565545542
decision_type=2 2 2 2 2 2 2 2 2 2 2 2 2 2 2 2 2 2 2 2 2 2 2 2 2 2 2 2 2 2
left_child=-1 2 -2 4 5 -4 -7 8 9 -8 11 12 -11 -14 17 16 -3 20 19 21 -15 -18 24 -22 25 -5 27 28 -23 -30
right_child=1 15 3 22 -6 6 7 -9 -10 10 -12 -13 13 14 -16 -17 18 -19 -20 -21 23 26 -24 -25 -26 -27 -28 -29 29 -31
leaf_value=0.0096317091889218734 0.0059801331153721549 0.013448428012656444 0.0067248617698039337 -0.0012981523749648885 0.0063176701739157516 0.0016516811852014908 0.0061850837657326145 0.0018573241563219775 0.0081111170714948232 0.0011015757918357849 0.01018266992436515 0.0033292170476030419 -0.0013527531389127742 0.0062130420635908082 0.0086475531394417226 0.015803334834900772 0.0095613761867086103 0.00085596095093271951 0.012633104439256554 0.013919021328290305 0.0092681161761283878 0.012324019425954576 0.011979252161650822 -0.011744194690719268 0.015165284855498208 0.017403428160375167 0.013784314833936238 0.011421369103824392 0.0039943657051294277 -0.0064146575161090529
leaf_weight=469 512 132 224 372 273 482 95 380 82 142 54 108 193 39 37 110 120 88 118 75 25 39 145 2173 54 31 42 51 117 428
leaf_count=469 512 132 224 372 273 482 95 380 82 142 54 108 193 39 37 110 120 88 118 75 25 39 145 2173 54 31 42 51 117 428
internal_value=0 -0.000834678 -0.00221203 -0.00305141 -0.0040638 -0.00475136 -0.00541085 -0.00640738 -0.00744183 -0.00787356 -0.00834071 -0.00869731 -0.0091789 -0.00975026 -0.0104364 0.00532426 0.0042969 -0.0107401 0.0030767 0.00178352 -0.0111963 0.000641531 0.00433972 -0.0115052 0.0019158 0.000140431 -0.000939534 -0.0019134 -0.0030779 -0.00418006
internal_weight=0 6741 5509 4997 4395 4122 3898 3416 3036 2954 2859 2805 2697 2555 2362 1232 1122 2325 990 872 2237 797 602 2198 457 403 677 635 584 545
internal_count=7210 6741 5509 4997 4395 4122 3898 3416 3036 2954 2859 2805 2697 2555 2362 1232 1122 2325 990 872 2237 797 602 2198 457 403 677 635 584 545
is_linear=0
shrinkage=0.05


Tree=19
num_leaves=31
num_cat=0
split_feature=9 9 8 8 5 5 4 2 1 4 0 0 1 3 4 9 5 6 6 3 3 1 2 1 1 2 6 6 0 0
split_gain=17.3405 20.6434 14.2423 16.9591 12.8814 16.6125 9.56134 8.26973 7.891 6.90512 6.60053 6.30114 6.16011 5.30309 5.2152 4.99152 4.98039 4.96906 4.05587 3.80464 4.15307 4.35493 3.79026 3.71136 3.43036 3.28629 3.16183 4.05022 3.09231 3.15165
threshold=-1.488103211430748 0.95641504301186486 1.3624365302760928 -1.2797899603203453 1.2061579909156437 -0.94588500833636313 -1.6086880335428708 1.7702413081245838 -2.0558301106929826 1.7125076579692677 1.9413663996434691 -1.7279360922149591 2.1659949114156505 1.8347535039623339 0.96614466192188841 1.6466369314542553 -1.5559893583685456 -2.1749729392449009 2.1469261789250695 1.3899606867326051 -0.63025146101246465 1.0547634833086372 -1.024498241031587 -1.4927644270402192 1.2528326689116376 -1.0084017432819381 -0.73371844178874557 1.1679513310859577 -1.0598912426366176 0.85827310463644557
decision_type=2 2 2 2 2 2 2 2 2 2 2 2 2 2 2 2 2 2 2 2 2 2 2 2 2 2 2 2 2 2
left_child=-1 2 3 -2 5 14 -7 8 -8 10 11 -10 13 17 16 19 -5 -13 22 20 -3 23 24 -22 -19 -6 -25 -28 -27 -30
right_child=1 15 -4 4 25 6 7 -9 9 -11 -12 12 -14 -15 -16 -17 -18 18 -20 -21 21 -23 -24 26 -26 28 27 -29 29 -31
leaf_value=0.0091501236629130244 0.0055740031700833408 0.0077421894460393678 0.0063112285707364116 0.0057229523102945417 0.012903965123092075 0.0052370143313723878 0.011476485009463329 0.0052992764947026282 0.002540331094161324 0.0038462894574060277 0.0066472290669168758 0.010142496724923452 0.011714257036938389 0.0046109379757018317 0.01103687895642173 0.0099919060131956876 -0.0032713725653759173 -0.0073947610116716651 0.007075961250247377 0.014270825446515846 0.013044363985190523 0.0096034173318680291 -0.011425589521109407 0.004534621905420244 0.0097398940939456228 0.011825875305768216 -0.0077813215131560965 0.0083048275775379609 -0.0024273811666102249 0.0083289642933379402
leaf_weight=469 532 228 461 237 79 166 53 129 115 118 70 30 34 63 124 362 439 335 33 69 37 94 2014 97 32 66 300 45 290 89
leaf_count=469 532 228 461 237 79 166 53 129 115 118 70 30 34 63 124 362 439 335 33 69 37 94 2014 97 32 66 300 45 290 89
internal_value=0 -0.000792944 -0.00210143 -0.0028697 -0.00386439 -0.00483188 -0.00644663 -0.00708757 -0.00763914 -0.00799537 -0.00850796 -0.00890738 -0.00942548 -0.00971218 0.00161098 0.00505805 -0.000118037 -0.0100814 -0.0103327 0.00300511 0.00203466 -0.000236402 -0.010574 -0.00216739 -0.00590073 0.00350622 -0.00344077 -0.00568313 0.00183785 9.85153e-05
internal_weight=0 6741 5509 5048 4516 3992 3192 3026 2897 2844 2726 2656 2541 2507 800 1232 676 2444 2414 870 801 573 2381 479 367 524 442 345 445 379
internal_count=7210 6741 5509 5048 4516 3992 3192 3026 2897 2844 2726 2656 2541 2507 800 1232 676 2444 2414 870 801 573 2381 479 367 524 442 345 445 379
is_linear=0
shrinkage=0.05


Tree=20
num_leaves=31
num_cat=0
split_feature=2 2 6 6 8 5 5 4 9 8 1 9 0 0 3 6 4 1 1 3 3 3 6 3 8 3 0 0 1 3
split_gain=19.8941 20.3914 16.9259 16.4419 12.4049 10.3784 9.82729 7.73185 7.3178 6.74826 6.84353 6.41058 6.16518 6.08314 4.27807 4.07245 3.96184 3.95267 4.22683 3.75594 3.80215 3.71298 4.03775 3.68318 3.64754 3.61272 3.6098 3.97676 3.52901 3.51294
threshold=1.3165639921787295 -1.3081708758842296 -1.111548471133375 0.99679839046631502 1.9750502639104066 -1.2435874004241103 1.2061579909156437 -1.6514964342170326 2.0691358116462246 -2.2567451031233943 2.0913018395570826 -1.772856141381278 -1.8165244555820708 1.4961394247881472 2.2504992106351005 1.9196380523296896 1.9933115385364029 -1.0860804144891567 1.3233692765353531 1.444854942996826 -1.2094693268747585 -1.3267666526080955 -1.9761172790502792 -1.1643734087459248 -0.75649677591266185 -2.2297718909128776 1.4392041708431076 -0.97892057927386078 -1.9759487416505219 1.319344058226734
decision_type=2 2 2 2 2 2 2 2 2 2 2 2 2 2 2 2 2 2 2 2 2 2 2 2 2 2 2 2 2 2
left_child=1 -1 21 4 5 -4 7 -7 9 -9 11 -11 -13 14 16 17 25 -5 19 20 -19 -3 -23 -8 -24 -14 27 -25 -27 -26
right_child=-2 2 3 15 -6 6 23 8 -10 10 -12 12 13 -15 -16 -17 -18 18 -20 -21 -22 22 24 26 29 28 -28 -29 -30 -31
leaf_value=0.0073621230445092105 0.0083126660946785929 0.0149829504173249 0.0025957295688513286 0.011209441158682743 0.012564529232540221 0.0043388504510611494 0.012619678555957733 0.016500131580336343 0.012180803747226795 0.0043010530052798816 0.0098953066186772461 0.0050666170171749444 0.0071753157675266271 0.00010587159415771221 0.0098726332187652598 0.010597063712291903 0.0041503414809703825 0.0084983152501723353 0.010882781390790587 0.013402567878365518 -0.0042017028291975213 0.011500106568434346 0.0090894783772256255 0.010308462598107079 -0.0016736142408280146 0.0032820612509199911 0.015035557177136928 -0.0043400104632791208 -0.01055501139355304 0.012346280679106713
leaf_weight=661 635 80 428 94 106 153 62 29 48 101 54 81 30 174 28 154 50 68 81 40 442 134 137 55 420 47 34 294 2352 50
leaf_count=661 635 80 428 94 106 153 62 29 48 101 54 81 30 174 28 154 50 68 81 40 442 134 137 55 420 47 34 294 2352 50
internal_value=0 -0.000960418 -0.00190467 -0.00299618 -0.00431892 -0.00476411 -0.00564106 -0.00662451 -0.00718476 -0.00750029 -0.00773889 -0.0080715 -0.00852393 -0.00893454 -0.00956199 0.00321271 -0.00978151 0.00164418 0.000219241 -0.00135121 -0.00250837 0.00474946 0.00364463 0.00131378 0.00191047 -0.0100683 -0.00051642 -0.00203151 -0.0102839 -0.000182136
internal_weight=0 6487 5826 5005 4126 4020 3592 3147 2994 2946 2917 2863 2762 2681 2507 879 2479 725 631 550 510 821 741 445 607 2429 383 349 2399 470
internal_count=7122 6487 5826 5005 4126 4020 3592 3147 2994 2946 2917 2863 2762 2681 2507 879 2479 725 631 550 510 821 741 445 607 2429 383 349 2399 470
is_linear=0
shrinkage=0.05


Tree=21
num_leaves=31
num_cat=0
split_feature=7 7 2 2 6 6 1 1 3 9 9 0 7 0 0 0 5 6 4 4 0 0 3 5 9 5 0 5 4 5
split_gain=18.3465 21.3858 17.3072 16.1554 13.0538 12.047 8.93133 8.63662 7.75066 6.67854 6.03028 5.28852 4.80486 4.62411 4.17847 4.77107 3.52975 3.50204 3.95536 4.42771 3.49367 3.91051 3.47976 3.43259 3.50858 3.24988 3.45216 4.1325 3.23221 3.31434
threshold=-1.0842189505844531 1.5349609440815486 1.3165639921787295 -1.3081708758842296 -1.053985326961709 1.4078874731852096 1.7477487129078526 -1.3433184040100066 -1.4187507511636908 -1.8886058497574829 2.0691358116462246 2.169695028537848 -1.8287034425579092 -1.3790658114135985 -0.91595025784180129 0.44503327747395832 2.2330325014582564 -1.9761172790502792 -0.99728633316840576 0.98071020038057022 1.4961394247881472 -1.403343780609867 2.2504992106351005 1.1248847528399097 -1.3500793802418178 -1.1143640420493088 1.0663120366581131 1.0217237128957424 -2.1525585601235462 -2.2616789579400991
decision_type=2 2 2 2 2 2 2 2 2 2 2 2 2 2 2 2 2 2 2 2 2 2 2 2 2 2 2 2 2 2
left_child=12 2 3 -2 17 6 7 25 -9 -10 11 13 -1 -11 -14 -16 22 -5 -19 20 21 -20 28 24 -23 -6 27 -27 -15 -30
right_child=1 -3 -4 4 5 -7 -8 8 9 10 -12 -13 14 16 15 -17 -18 18 19 -21 -22 23 -24 -25 -26 26 -28 -29 29 -31
leaf_value=0.012509865887139156 0.0054954852515584907 0.0093055717301684503 0.006784793730184902 0.010433082732147185 0.013545664741347233 0.0039326389736769208 0.0066536848225610722 0.0017209273152824106 0.0063785106035662287 -0.0017897982065263947 0.010620610132103876 0.007984357948104542 0.011810543483777627 0.0043585025146603588 -0.0012193763921083498 0.0077250980017449069 0.0097174282496174172 0.0098168886402278284 0.013711466336691822 0.0088892368437803303 0.014046944843398202 0.0091996038953463238 0.0090100626349449153 0.0073040576208205452 -0.0097139048581935949 -0.0055939994153365417 0.01513989769643353 0.011665717547848113 0.0085167457039157565 -0.010156814226000656
leaf_weight=230 521 453 512 116 48 351 139 232 81 219 42 48 148 40 363 253 24 103 27 92 27 27 25 42 267 199 31 42 24 2396
leaf_count=230 521 453 512 116 48 351 139 232 81 219 42 48 148 40 363 253 24 103 27 92 27 27 25 42 267 199 31 42 24 2396
internal_value=0 -0.00114901 -0.00198354 -0.00285307 -0.00379008 -0.00490834 -0.00577273 -0.00627325 -0.0070729 -0.00777665 -0.00818352 -0.00846802 0.00617409 -0.00875751 0.00426672 0.00245425 -0.00936569 0.00249673 0.000923032 -0.000977523 -0.00330507 -0.00459571 -0.00954999 -0.00606682 -0.00797695 0.00155088 -0.000565842 -0.00258608 -0.00973861 -0.00997162
internal_weight=0 6128 5675 5163 4642 3941 3590 3451 3131 2899 2818 2776 994 2728 764 616 2509 701 585 482 390 363 2485 336 294 320 272 241 2460 2420
internal_count=7122 6128 5675 5163 4642 3941 3590 3451 3131 2899 2818 2776 994 2728 764 616 2509 701 585 482 390 363 2485 336 294 320 272 241 2460 2420
is_linear=0
shrinkage=0.05


Tree=22
num_leaves=31
num_cat=0
split_feature=6 6 7 7 2 2 1 1 0 5 0 3 3 7 6 3 0 0 7 5 5 7 9 5 4 9 3 3 6 5
split_gain=16.7377 16.6385 13.3265 13.0514 10.3883 9.28251 6.13316 6.25722 4.97229 4.68873 4.5719 4.29618 4.06658 4.56869 4.26655 3.91643 3.64636 4.24163 3.54488 3.53703 3.52053 3.50043 3.35906 3.40931 3.3391 3.25058 2.98397 3.58269 3.59146 3.15896
threshold=-1.053985326961709 0.9308223546879687 -1.0842189505844531 1.4545095116676892 1.338573402617494 -1.0671481816111683 -2.0558301106929826 1.2115104604626483 1.4122113961307481 1.3037964817613406 -1.2067024098136416 0.73360742685131275 -1.2349689616502497 1.3404601292275664 1.9196380523296896 2.2504992106351005 -1.1438307430463526 0.50954703246301991 -1.968196023778807 -0.89892470048306405 1.6478988849899932 -1.6172836899885923 2.0691358116462246 -2.2616789579400991 -1.1262813780149696 -1.3500793802418178 -1.4187507511636908 0.94878736427645005 -1.9761172790502792 -1.3792875154188819
decision_type=2 2 2 2 2 2 2 2 2 2 2 2 2 2 2 2 2 2 2 2 2 2 2 2 2 2 2 2 2 2
left_child=26 2 16 4 5 20 -7 8 10 11 -8 12 -3 14 19 22 -2 18 -18 -14 24 -21 23 -12 -4 -23 -1 28 -28 -30
right_child=1 9 3 -5 -6 6 7 -9 -10 -11 15 -13 13 -15 -16 -17 17 -19 -20 21 -22 25 -24 -25 -26 -27 27 -29 29 -31
leaf_value=0.014450567729514223 0.012903580290018297 0.010365125760436059 0.010484840205082528 0.0059101696902265155 0.0044014442327522463 0.010603737774884927 -0.0020348780679108835 4.6337115633824029e-05 7.4857075526876371e-05 0.013717539841714114 0.0098391667656276549 0.0089398960811925728 0.0049496133557774807 0.01182972280358946 0.0078071577129540624 0.0094195427565739089 0.010666675133663312 0.0079354221310316189 -0.002893630763850151 0.012360308181356501 0.017523898283640545 0.0099136769257742799 0.009512980654835702 -0.0095206720308466733 -0.0016471739481674153 -0.0074499530903019834 0.010594374850286661 0.010885859938004078 0.011562399525900146 0.00061123517021088305
leaf_weight=87 98 110 65 336 310 53 281 319 206 115 23 244 110 74 108 29 57 223 312 27 30 29 24 2017 445 382 141 195 74 598
leaf_count=87 98 110 65 336 310 53 281 319 206 115 23 244 110 74 108 29 57 223 312 27 30 29 24 2017 445 382 141 195 74 598
internal_value=0 -0.00115377 -0.00246296 -0.00353565 -0.00437042 -0.00514913 -0.0062517 -0.00655985 -0.00737667 0.00411792 -0.00802326 0.00309951 0.00140302 5.25656e-05 -0.00127596 -0.00882724 0.00397005 0.00249119 -0.000798949 -0.00306606 0.000878221 -0.00507913 -0.00908362 -0.0093024 -0.000100937 -0.00622478 0.00556611 0.00479929 0.00333941 0.00181717
internal_weight=0 6027 4828 4138 3802 3492 2952 2899 2580 1199 2374 1084 840 730 656 2093 690 592 369 548 540 438 2064 2040 510 411 1095 1008 813 672
internal_count=7122 6027 4828 4138 3802 3492 2952 2899 2580 1199 2374 1084 840 730 656 2093 690 592 369 548 540 438 2064 2040 510 411 1095 1008 813 672
is_linear=0
shrinkage=0.05


Tree=23
num_leaves=31
num_cat=0
split_feature=5 5 3 8 8 0 3 1 2 1 6 4 2 9 9 4 8 2 4 4 9 0 1 9 6 6 6 6 1 0
split_gain=15.9167 17.4518 13.5666 12.6159 12.1428 9.88825 9.8078 8.42312 7.31129 6.79596 6.37869 6.09784 5.81159 5.19653 5.42952 4.481 4.26533 4.13982 4.24001 4.38442 3.70322 3.68574 3.50796 3.28116 3.162 3.10602 3.86033 3.02012 2.87897 2.82906
threshold=-1.2435874004241103 1.2061579909156437 -1.4187507511636908 1.5199302734535525 -0.89884772181209949 -1.7639532418766828 1.1740590093612673 -1.0732156317625674 2.414663842785187 2.0913018395570826 1.9196380523296896 -1.7976073560281189 -2.0200755566907991 1.6466369314542553 -2.0333394765993424 2.0617720377720405 -2.2567451031233943 1.5168762992982983 1.1149076887097347 -1.1060913158971524 -0.68602792971137183 1.9979615593761866 -1.2663223838833948 1.0805005968733692 -1.9761172790502792 0.61142555952779387 -1.053985326961709 -1.2946485164057433 0.83310563359801926 -1.0743756951201999
decision_type=2 2 2 2 2 2 2 2 2 2 2 2 2 2 2 2 2 2 2 2 2 2 2 2 2 2 2 2 2 2
left_child=29 2 -2 4 16 -6 7 23 9 10 11 -9 -13 14 -14 21 -4 18 19 -18 -8 24 -21 27 -16 26 -22 -7 -24 -1
right_child=1 -3 3 -5 5 6 20 8 -10 -11 -12 12 13 -15 15 -17 17 -19 -20 22 25 -23 28 -25 -26 -27 -28 -29 -30 -31
leaf_value=0.013849782350316512 0.006529442765127679 0.005954330437875033 0.01539117069406943 0.007011432695010352 0.0079605996412666219 0.011792648832003276 0.010163443431258202 0.004229535744525492 0.018340431579521723 0.0099003926052578864 0.0057809322721817918 0.0076148095092287774 0.00634402483701706 0.001409385787404102 0.0046750540680745075 0.005435543745122058 0.0074773457406435984 0.01498030324280262 0.00931391560156411 0.009274087932247382 0.0091825688440425723 0.0040010157558653088 -0.0063951482319443455 0.011035173264194708 -0.010692328032688561 0.0070368100641941544 -0.0059988191016973596 -0.0028595654116995509 0.0024094788434584277 0.0053151503172905552
leaf_weight=113 434 798 55 315 152 39 100 96 28 56 85 54 53 115 34 47 118 50 109 52 51 45 399 61 2162 98 234 358 121 690
leaf_count=113 434 798 55 315 152 39 100 96 28 56 85 54 53 115 34 47 118 50 109 52 51 45 399 61 2162 98 234 358 121 690
internal_value=0 -0.000957182 -0.00195617 -0.00268012 -0.00331986 -0.00453919 -0.00505048 -0.00604334 -0.00708017 -0.00733928 -0.00769804 -0.00813768 -0.00861069 -0.00896744 -0.00947719 -0.00984368 0.00189735 0.0010232 0.000149786 -0.00129788 0.00159532 -0.0101641 -0.00310815 0.000238722 -0.0104544 -0.000641789 -0.00328215 -0.00142018 -0.00434638 0.00651616
internal_weight=0 6319 5521 5087 4772 3868 3716 3233 2775 2747 2691 2606 2510 2456 2341 2288 904 849 799 690 483 2241 572 458 2196 383 285 397 520 803
internal_count=7122 6319 5521 5087 4772 3868 3716 3233 2775 2747 2691 2606 2510 2456 2341 2288 904 849 799 690 483 2241 572 458 2196 383 285 397 520 803
is_linear=0
shrinkage=0.05


Tree=24
num_leaves=31
num_cat=0
split_feature=7 7 6 6 8 8 9 1 1 9 5 5 3 0 3 4 0 7 9 9 4 1 4 0 0 8 8 0 0 4
split_gain=15.1503 17.7003 12.3983 12.0832 10.0019 9.21064 6.97573 6.50413 6.81322 5.25131 5.28183 5.18871 5.04679 4.7734 4.51172 4.46681 4.30461 4.01381 3.85793 4.49789 3.82666 3.60679 3.57676 3.36163 4.10376 3.19116 3.26149 3.09734 3.41346 3.80003
threshold=-1.0842189505844531 1.5349609440815486 -1.053985326961709 0.98095024872113223 1.7463736241351631 -1.3063238201083924 -1.772856141381278 1.6044332527789607 -1.4927644270402192 1.8029050042667898 2.2330325014582564 -2.1206706095165342 -1.9054657707152787 -1.7639532418766828 1.9383184452293774 1.9933115385364029 1.9979615593761866 -1.8287034425579092 -1.3500793802418178 0.99971717176607611 -2.3539299259480884 -1.2942253638982797 1.098347876160304 -0.99693236758324422 0.77715757942415398 -0.58532269161132777 1.3052997806335043 -0.94415024234960299 0.96140838802595097 -0.26846352251289568
decision_type=2 2 2 2 2 2 2 2 2 2 2 2 2 2 2 2 2 2 2 2 2 2 2 2 2 2 2 2 2 2
left_child=17 2 25 4 5 -4 -7 8 -8 10 11 -10 -13 -14 15 16 20 -1 -5 21 -15 -20 27 -23 -25 -2 -27 -19 29 -29
right_child=1 -3 3 18 -6 6 7 -9 9 -11 -12 12 13 14 -16 -17 -18 22 19 -21 -22 23 -24 24 -26 26 -28 28 -30 -31
leaf_value=0.011407886021163154 0.0083133757485512119 0.0084735653258317355 0.0031481485624434585 0.012577755915768008 0.0080529398990399903 0.0062157465647610412 0.0022665095136121471 0.0037476431753705533 0.0096371041654154319 0.0043744177980856464 0.011682570311758254 0.0054788435282914537 0.0028440470549654455 0.011682334897064028 0.005667394427237688 0.0050193076421107567 0.0054049444137787336 0.0098654589978820206 0.010742458999156953 0.009011240165012006 -0.0097563939018708318 0.007287078987011749 0.012540431002390037 -0.0058395371432342228 0.0046747832278895181 0.00024425853361893427 0.01079878353897263 0.0039911244758496101 0.0090726445429027084 -0.0053359744555138526
leaf_weight=230 261 453 354 85 165 126 216 170 43 99 36 69 94 21 54 56 49 118 65 156 2354 89 103 378 123 527 85 204 104 235
leaf_count=230 261 453 354 85 165 126 216 170 43 99 36 69 94 21 54 56 49 118 65 156 2354 89 103 378 123 527 85 204 104 235
internal_value=0 -0.00103762 -0.00179684 -0.00279331 -0.00399458 -0.00452594 -0.00532802 -0.00577405 -0.00629773 -0.00694116 -0.00734471 -0.0075947 -0.00786944 -0.00821991 -0.00863033 -0.00894165 -0.00926418 0.0056171 0.00244344 0.00138128 -0.00956683 -0.000435934 0.00387379 -0.00166745 -0.00325818 0.00368432 0.00171016 0.00252332 0.000927791 -0.00100174
internal_weight=0 6128 5675 4802 3906 3741 3387 3261 3091 2875 2776 2740 2697 2628 2534 2480 2424 994 896 811 2375 655 764 590 501 873 612 661 543 439
internal_count=7122 6128 5675 4802 3906 3741 3387 3261 3091 2875 2776 2740 2697 2628 2534 2480 2424 994 896 811 2375 655 764 590 501 873 612 661 543 439
is_linear=0
shrinkage=0.05


Tree=25
num_leaves=31
num_cat=0
split_feature=9 9 7 7 8 8 2 3 1 1 5 2 6 6 5 3 0 0 0 3 1 5 3 0 7 0 6 0 5 1
split_gain=14.6752 16.4348 12.8081 15.2137 10.0018 11.7613 8.2427 8.05381 6.72171 6.1051 5.58243 4.99873 4.87414 4.45871 4.54294 3.59039 3.38603 3.32099 3.22892 3.16771 3.11016 3.225 3.07951 2.97848 2.90421 2.90117 2.80913 3.19042 2.61973 2.81924
threshold=-1.1912353332435832 1.244565888531739 -1.1203705887280604 1.4946176436148568 -1.6398852035758882 0.92398424429689352 1.82631377103098 -1.2896901173544004 -1.3202100654290014 2.0913018395570826 1.8917565812282495 -2.2363671574486763 1.8040391226655692 -2.3017802695548015 -2.3899821730320601 0.93642843197032533 -0.84781844362583703 1.6440611773744365 -0.83267692274616179 0.80797541506075921 1.3028756309918916 0.92702359479898799 1.7164181690952407 0.89300705597298091 -1.8287034425579092 1.348086509252383 -1.2106878591819528 0.48645403004455617 1.5571414242196677 -0.58413307069513032
decision_type=2 2 2 2 2 2 2 2 2 2 2 2 2 2 2 2 2 2 2 2 2 2 2 2 2 2 2 2 2 2
left_child=-1 2 16 4 -4 6 7 20 19 10 11 -10 13 -13 -15 18 -2 22 -7 25 21 -6 -16 -20 -18 -9 -26 -28 29 -3
right_child=1 28 3 -5 5 15 -8 8 9 -11 -12 12 -14 14 17 -17 24 -19 23 -21 -22 -23 -24 -25 26 -27 27 -29 -30 -31
leaf_value=0.006347056010016775 0.010828546113334597 0.01021512189113042 0.0068701124849862285 0.0072699470564847532 -0.0020685779512399742 0.0059338449795798562 0.0072804773374209337 -0.003787326277011917 0.013727513012977748 0.011112024584277111 0.0050928430115602108 0.011130484938621522 0.0038352358806878332 0.013679713620380922 -0.0099369780480588893 0.0083534435977538433 0.0088711458717433498 -0.0011094917955457187 -0.004127711230164091 0.010879204633335273 0.016491845389828088 0.012742485972337944 -0.00012474518763013633 0.0049569895555233133 0.010847158136509234 0.01570409451212202 -0.0044502773135900496 0.0047890232912465641 0.016890472714223115 0.0033463118898291741
leaf_weight=829 160 204 224 359 253 164 126 210 26 44 83 28 80 22 2185 150 142 122 406 60 32 43 83 116 59 21 240 153 51 558
leaf_count=829 160 204 224 359 253 164 126 210 26 44 83 28 80 22 2185 150 142 122 406 60 32 43 83 116 59 21 240 153 51 558
internal_value=0 -0.000722921 -0.00168881 -0.00263366 -0.00342763 -0.00396988 -0.00527009 -0.00575046 -0.00657316 -0.00735879 -0.00766792 -0.00808392 -0.00830896 -0.00870713 -0.00893742 0.00134609 0.00437255 -0.00914561 -0.000186136 0.000643298 0.00168389 8.30293e-05 -0.00957789 -0.00210889 0.00263357 -0.00201538 0.000673974 -0.000853298 0.00591948 0.00518521
internal_weight=0 6404 5591 4837 4478 4254 3418 3292 2964 2673 2629 2546 2520 2440 2412 836 754 2390 686 291 328 296 2268 522 594 231 452 393 813 762
internal_count=7233 6404 5591 4837 4478 4254 3418 3292 2964 2673 2629 2546 2520 2440 2412 836 754 2390 686 291 328 296 2268 522 594 231 452 393 813 762
is_linear=0
shrinkage=0.05


Tree=26
num_leaves=31
num_cat=0
split_feature=4 4 9 9 5 5 1 2 8 6 2 3 8 1 4 1 1 7 6 7 7 2 2 7 9 5 9 3 3 4
split_gain=13.6062 16.3992 12.1922 10.5431 8.27538 8.20663 7.0306 6.79765 7.03255 7.00826 6.94751 5.86395 6.05541 5.43025 4.2335 4.49376 4.41066 4.155 4.2184 3.9298 3.83358 3.22932 2.87445 2.85062 2.85019 2.83296 3.36975 2.79001 4.50546 2.88206
threshold=1.1497318588517798 -0.92955431104754782 -1.2144102989478067 1.1190344269081443 1.4080547798760399 -1.5559893583685456 1.8953346044404797 -2.0200755566907991 -2.0235865036437795 1.9196380523296896 1.6129538947449447 -1.9054657707152787 2.0726363180084948 -0.9150022603459872 -1.9714423709876638 0.9862824035103922 -1.0374585228091162 -2.0261032275821482 -2.3017802695548015 1.571245893791174 1.674115418637915 -0.94522613422918655 2.414663842785187 1.9763104847007518 1.9317155795546268 -0.94588500833636313 1.244565888531739 0.96626274922039268 -0.71678901228110592 2.1558910873936878
decision_type=2 2 2 2 2 2 2 2 2 2 2 2 2 2 2 2 2 2 2 2 2 2 2 2 2 2 2 2 2 2
left_child=1 14 -3 4 5 -4 7 -7 -9 10 11 -10 13 20 -1 16 -16 -15 -19 25 -13 -5 -12 -20 -23 -18 -27 28 -2 -30
right_child=27 2 3 21 -6 6 -8 8 9 -11 22 12 -14 17 15 -17 19 18 23 -21 -22 24 -24 -25 -26 26 -28 -29 29 -31
leaf_value=0.011579050102281845 0.010833581164479257 0.0049612291037074985 0.0044479298515845153 0.011688300735420652 0.004240780367570765 0.01150673252710125 0.0080578780051359204 0.01062125861644745 0.0063526278385868315 0.0076532015830955719 0.00019362469164418505 -0.0042668250646313716 0.008489110778298295 0.0069267920032143595 0.0091263745805460535 0.01039029225213093 0.0061842848050097628 0.0099442768841981888 -0.0098649190618078468 0.013692183315753937 0.015463063665307487 1.314292481589702e-05 0.017468003774511406 0.0025869866159368071 0.0095516984581306419 -0.0036256398811100529 0.0082142340128912635 0.012173968609677602 0.00088698587937584479 0.012344976935175158
leaf_weight=174 210 558 236 90 289 57 97 63 77 88 142 464 57 40 167 181 120 28 2083 50 26 496 29 47 93 517 68 146 478 62
leaf_count=174 210 558 236 90 289 57 97 63 77 88 142 464 57 40 167 181 120 28 2083 50 26 496 29 47 93 517 68 146 478 62
internal_value=0 -0.000732413 -0.00201021 -0.00287428 -0.003894 -0.00455924 -0.00520378 -0.00560565 -0.0059159 -0.00625405 -0.00666295 -0.00725594 -0.00763767 -0.00797965 0.00433073 0.00318729 0.00177325 -0.00904073 -0.0093367 0.000146802 -0.00321993 0.00286712 0.0031232 -0.00959016 0.00151923 -0.000813863 -0.00224938 0.00585024 0.00461923 0.00220253
internal_weight=0 6337 5060 4502 3823 3534 3298 3201 3144 3081 2993 2822 2745 2688 1277 1103 922 2198 2158 755 490 679 171 2130 589 705 585 896 750 540
internal_count=7233 6337 5060 4502 3823 3534 3298 3201 3144 3081 2993 2822 2745 2688 1277 1103 922 2198 2158 755 490 679 171 2130 589 705 585 896 750 540
is_linear=0
shrinkage=0.05


Tree=27
num_leaves=31
num_cat=0
split_feature=7 7 1 1 2 2 3 6 8 3 8 7 6 3 1 6 4 5 5 3 3 4 9 8 3 1 9 9 4 8
split_gain=12.4382 15.729 9.34214 10.1998 7.6204 8.88888 6.30137 6.55767 5.09448 4.7971 4.36156 4.23792 3.8714 3.84998 3.79541 3.78125 3.71576 3.49407 3.549 3.41422 3.39881 3.53072 3.07125 3.02859 2.90802 2.98034 2.88206 2.85603 2.85407 2.81715
threshold=-1.1203705887280604 0.92206813502281693 -1.3433184040100066 0.9862824035103922 1.2269595023700541 -1.0084017432819381 -1.4475653154432284 1.8040391226655692 -1.947873822484657 1.3400920915848606 1.8415377630942922 1.674115418637915 -1.9761172790502792 0.82207415831873154 2.0298464369784486 0.98095024872113223 2.1558910873936878 1.6478988849899932 -0.85956673941613737 -0.95910291733072084 1.1078084013829115 -1.3276024656770848 1.3558533826741328 0.9667761336520605 -1.3726933612068513 1.4483727055294717 1.9317155795546268 -1.1738965046994934 1.6644107263759174 -1.2144449130492803
decision_type=2 2 2 2 2 2 2 2 2 2 2 2 2 2 2 2 2 2 2 2 2 2 2 2 2 2 2 2 2 2
left_child=-1 2 -2 4 5 15 -7 8 -8 10 12 20 -10 14 19 17 26 18 -4 -5 21 -3 23 29 -23 28 27 -14 -26 -21
right_child=1 11 3 13 -6 6 7 -9 9 -11 -12 -13 16 -15 -16 -17 -18 -19 -20 22 -22 24 -24 -25 25 -27 -28 -29 -30 -31
leaf_value=0.0054176096784791863 0.0049009765731170777 0.012257934065864368 0.0065561296893101115 0.0079135964073801558 0.0027715696226805449 0.002586374466827778 0.0074601571335167179 0.0076419352013387806 0.0051945524863325635 -0.00019430876044290409 0.0040638730332658102 0.0090982572257158629 -0.0039970137864725362 0.009436821806355843 0.010316364634572792 0.010357468781319072 0.0082911981269717227 0.017953498288989067 -0.0040670768827547488 0.00643718180557092 0.010169011248009546 0.010732068842457186 0.011414316006832653 0.0056874716920512066 -0.0023279226671736966 0.010591695078394629 0.0049507968731828641 -0.0098164514111133191 0.012774702680833411 -0.0073696509586095027
leaf_weight=948 448 68 102 93 400 213 61 81 52 224 74 331 239 159 89 94 32 24 343 42 126 62 36 70 601 55 37 1789 33 307
leaf_count=948 448 68 102 93 400 213 61 81 52 224 74 331 239 159 89 94 32 24 343 42 126 62 36 70 601 55 37 1789 33 307
internal_value=0 -0.000726397 -0.00198886 -0.0026656 -0.0037528 -0.00452836 -0.00568028 -0.00636038 -0.00681261 -0.00716841 -0.00787115 0.00422945 -0.00828213 0.00247675 0.000739463 0.00120463 -0.00861632 -0.000629847 -0.00163209 -0.000815909 0.00252407 0.00134793 -0.00260018 -0.00380429 0.000360073 -0.000573256 -0.00887832 -0.00913063 -0.00154182 -0.00570808
internal_weight=0 6285 5009 4561 3765 3365 2802 2589 2508 2447 2223 1276 2149 796 637 563 2097 469 445 548 945 819 455 419 751 689 2065 2028 634 349
internal_count=7233 6285 5009 4561 3765 3365 2802 2589 2508 2447 2223 1276 2149 796 637 563 2097 469 445 548 945 819 455 419 751 689 2065 2028 634 349
is_linear=0
shrinkage=0.05


Tree=28
num_leaves=31
num_cat=0
split_feature=9 9 7 7 3 3 8 2 2 1 8 6 1 0 0 5 5 6 1 1 3 1 8 8 8 6 5 1 1 2
split_gain=11.9246 13.3107 10.4659 11.1102 8.49075 9.64731 7.10936 6.97237 6.94691 6.30928 5.95951 5.6761 4.91139 4.84727 4.53004 4.14539 3.6781 3.69321 3.53445 3.6628 2.89823 2.73211 2.70893 2.56323 2.48029 2.44909 2.3176 2.53509 3.24212 2.76761
threshold=-1.1912353332435832 1.244565888531739 -1.4866636100463173 1.4946176436148568 -1.4475653154432284 0.94878736427645005 -1.7215307133768742 -2.0200755566907991 1.6841804021963802 1.8953346044404797 2.0726363180084948 1.8040391226655692 -2.0558301106929826 -1.7639532418766828 1.5984787483822454 2.1055106441363463 -2.3899821730320601 -2.3017802695548015 -1.2000841068317134 0.95902154761337643 1.7850588987957963 -0.9150022603459872 1.3624365302760928 0.56706492636593586 0.9821479915195277 -1.111548471133375 1.5571414242196677 -0.58413307069513032 0.52087707856893972 1.1436893436092401
decision_type=2 2 2 2 2 2 2 2 2 2 2 2 2 2 2 2 2 2 2 2 2 2 2 2 2 2 2 2 2 2
left_child=-1 2 -2 4 -4 6 -6 -8 9 10 11 12 -9 23 15 16 -15 -18 -7 20 22 -16 25 -14 -19 -20 27 -3 29 -29
right_child=1 26 3 -5 5 18 7 8 -10 -11 -12 -13 13 14 21 -17 17 24 19 -21 -22 -23 -24 -25 -26 -27 -28 28 -30 -31
leaf_value=0.0057175565821054623 0.0064861653509892918 0.0094013994486600756 0.0047646193717207231 0.0063786241337449442 0.0058189122406251594 0.011445461078939668 0.010650282279706338 0.007680202185593803 0.0049981169216334817 0.007388561467329662 0.0089529049969636482 0.0052027767795382197 -0.0025712884267171227 0.013184979520738126 0.015174839562839932 0.0060779313915050948 0.010059569555300255 -0.0092103975703645962 0.0053843220467107338 0.0079547847145133559 0.0055414046764373781 -0.0022167634704838629 0.0097124137768619945 0.012856413654628255 -0.005056417716970278 -0.0057787786269288387 0.015641302498532277 -0.0018823080778527423 0.0074731179790800076 0.012805419435931576
leaf_weight=829 380 204 350 359 163 83 71 58 160 90 65 103 75 20 27 52 27 2187 57 135 125 138 38 42 430 356 51 294 228 36
leaf_count=829 380 204 350 359 163 83 71 58 160 90 65 103 75 20 27 52 27 2187 57 135 125 138 38 42 430 356 51 294 228 36
internal_value=0 -0.00065551 -0.00152476 -0.00210894 -0.00273694 -0.00332013 -0.00439118 -0.00486065 -0.00517765 -0.00566894 -0.00603345 -0.00634181 -0.00673091 -0.00700971 -0.00741487 -0.00790355 -0.00817646 -0.00833804 0.00168171 0.000541919 -0.00119547 0.000629135 -0.00306268 0.00296686 -0.00852786 -0.00423811 0.00532234 0.0046317 0.00288793 -0.000280011
internal_weight=0 6404 5591 5211 4852 4502 3708 3545 3474 3314 3224 3159 3056 2998 2881 2716 2664 2644 794 711 576 165 451 117 2617 413 813 762 558 330
internal_count=7233 6404 5591 5211 4852 4502 3708 3545 3474 3314 3224 3159 3056 2998 2881 2716 2664 2644 794 711 576 165 451 117 2617 413 813 762 558 330
is_linear=0
shrinkage=0.05


Tree=29
num_leaves=31
num_cat=0
split_feature=4 4 9 9 0 0 8 2 2 1 1 7 4 1 1 7 5 5 7 3 8 1 3 2 2 2 7 1 7 5
split_gain=11.9943 14.6308 9.83572 8.36781 7.29851 8.61912 5.28579 5.44854 4.75349 4.79573 4.20379 3.95937 3.95698 3.95891 3.92519 3.60769 3.60042 3.7741 3.38137 3.36002 3.37654 3.3505 2.85391 2.8173 4.28568 2.76646 2.70288 2.84304 2.47074 2.46533
threshold=1.1497318588517798 -0.88871430777360561 -1.2144102989478067 1.1190344269081443 -1.1265233533829913 1.0663120366581131 -2.2567451031233943 -2.0200755566907991 2.414663842785187 1.8953346044404797 -1.7902072260904083 -1.7328863810985433 -1.9714423709876638 0.9862824035103922 -1.0374585228091162 2.0354328378467499 1.8245370629390525 -2.1206706095165342 1.571245893791174 -2.2297718909128776 2.1833942237853328 -0.9150022603459872 1.9933882860571657 0.89679585531174932 -0.65914552794125869 -0.94522613422918655 1.1553028294797341 0.95902154761337643 -0.83855332044813835 -1.024005746166899
decision_type=2 2 2 2 2 2 2 2 2 2 2 2 2 2 2 2 2 2 2 2 2 2 2 2 2 2 2 2 2 2
left_child=1 12 28 4 -4 6 -6 -8 9 10 -9 -12 -1 14 -14 16 17 -13 23 -19 22 -7 -21 24 -16 -5 27 -23 -3 -30
right_child=-2 2 3 25 5 21 7 8 -10 -11 11 15 13 -15 18 -17 -18 19 -20 20 -22 26 -24 -25 -26 -27 -28 -29 29 -31
leaf_value=0.010933949430098479 0.0054860209260368725 0.011117280605766508 0.002017349789933703 0.010619369768694546 0.011773980582176253 0.01060083197163684 0.009978864763705235 0.0029668243918216457 0.015939610668768488 0.0059636519143455909 0.003530451107815088 0.0068169544201071679 0.0082921724079707479 0.009376831071881149 0.0045024401907409941 0.0058460152422895239 0.0032219626744028548 0.0093748007256251112 0.01232986237924054 -0.0092192249040144621 0.0074155751382932074 -0.0040068492155384133 0.0032386821159657016 0.005794414877891541 -0.0047103532069829391 0.0011518421846217124 0.010340181580529764 0.0070065797957247255 0.011228264228139126 0.0010652391010905332
leaf_weight=174 896 108 492 89 43 84 53 106 24 76 83 41 179 195 175 49 71 26 53 2101 32 297 47 136 453 580 52 73 71 374
leaf_count=174 896 108 492 89 43 84 53 106 24 76 83 41 179 195 175 49 71 26 53 2101 32 297 47 136 453 580 52 73 71 374
internal_value=0 -0.000694431 -0.00195325 -0.00273995 -0.00365894 -0.00451613 -0.00561888 -0.00589496 -0.00621172 -0.00641371 -0.00678173 -0.00720351 0.0038908 0.00286183 0.0015863 -0.0075799 -0.00786371 -0.00821399 0.000117087 -0.00849335 -0.00870646 0.00148143 -0.00894664 -0.000730134 -0.00214309 0.00241135 -0.000333802 -0.00183393 0.00433322 0.00268676
internal_weight=0 6337 4972 4419 3750 3258 2752 2709 2656 2632 2556 2450 1365 1191 996 2367 2318 2247 817 2206 2180 506 2148 764 628 669 422 370 553 445
internal_count=7233 6337 4972 4419 3750 3258 2752 2709 2656 2632 2556 2450 1365 1191 996 2367 2318 2247 817 2206 2180 506 2148 764 628 669 422 370 553 445
is_linear=0
shrinkage=0.05


Tree=30
num_leaves=31
num_cat=0
split_feature=0 7 7 6 6 2 1 1 2 0 4 4 7 1 8 1 9 3 8 0 3 0 2 0 4 3 4 3 2 6
split_gain=13.7068 13.3698 11.7448 8.41524 8.18198 7.28094 6.33949 6.69843 4.51854 4.4417 3.43133 3.65097 3.21946 3.15558 2.89432 2.69091 2.75163 2.61811 2.62628 2.59464 2.58181 2.57473 2.62179 2.52133 2.5033 3.11569 2.44643 2.41667 2.47594 2.37346
threshold=1.4392041708431076 -1.0336840548263246 0.92206813502281693 1.3121424790540852 -1.4461640449537279 1.4186207353156544 1.2782796121220357 -1.0076767091899204 -0.84674060135951235 -0.78925721130975302 -1.3276024656770848 0.90327323758137956 -2.0261032275821482 1.0731094814656734 2.0726363180084948 -1.2000841068317134 -1.1912353332435832 -2.1108785224043856 -2.1118218999632452 0.44503327747395832 -1.2631092829573254 -1.5770538979155699 -1.4785916756523945 -0.83267692274616179 -0.92955431104754782 0.70658468317175138 -1.9714423709876638 0.94878736427645005 -0.992532077912743 0.51677198407749747
decision_type=2 2 2 2 2 2 2 2 2 2 2 2 2 2 2 2 2 2 2 2 2 2 2 2 2 2 2 2 2 2
left_child=1 9 3 4 -3 6 7 29 23 -1 -4 13 -11 15 17 -12 -17 -10 -19 -14 -8 -18 -23 -9 -5 -26 -20 28 -22 -6
right_child=-2 2 10 24 5 -7 20 8 14 12 11 -13 19 -15 -16 16 21 18 26 -21 27 22 -24 -25 25 -27 -28 -29 -30 -31
leaf_value=0.010382965155564278 0.0077769205876840998 0.0037088451840332388 0.011681070621355927 0.012185267711940565 -0.0023109880128973407 0.0037021371498431044 0.014190862886607647 0.0045725621066047151 0.0060354345449895571 0.011136953856306848 0.0071046467439124465 0.0077590369261228117 -0.00087445505914535929 0.0078723850727081303 0.0053340890045676919 0.0079796428126948215 0.0095255175899518173 0.0082708058878779422 0.0034199166436528054 0.0056782072750811881 0.0092668987251818182 0.0081840471160121078 -0.0049865052946437447 -0.0041590562023595869 -0.00038589233004335147 0.01102564519682488 -0.008641977515616843 0.0083835743151713105 -0.0042757458432956981 0.0054681410755102458
leaf_weight=253 520 363 101 76 399 273 36 103 33 99 95 221 423 125 42 63 38 24 43 235 40 41 482 419 268 77 1879 69 216 130
leaf_count=253 520 363 101 76 399 273 36 103 33 99 95 221 423 125 42 63 38 24 43 235 40 41 482 419 268 77 1879 69 216 130
internal_value=0 -0.000651536 -0.00159778 -0.00275887 -0.00345514 -0.00415685 -0.00478181 -0.00551836 -0.00658324 0.00464746 0.0028733 0.002038 0.00273057 0.000539961 -0.00765439 -0.0007348 -0.00192831 -0.00793004 -0.00816687 0.00146578 0.00148602 -0.00304096 -0.00395401 -0.00243615 0.00397063 0.00216103 -0.00837212 7.87122e-05 -0.00215971 -0.000399293
internal_weight=0 6666 5656 4490 4069 3706 3433 3072 2543 1010 1166 1065 757 844 2021 719 624 1979 1946 658 361 561 523 522 421 345 1922 325 256 529
internal_count=7186 6666 5656 4490 4069 3706 3433 3072 2543 1010 1166 1065 757 844 2021 719 624 1979 1946 658 361 561 523 522 421 345 1922 325 256 529
is_linear=0
shrinkage=0.05


Tree=31
num_leaves=31
num_cat=0
split_feature=0 4 4 5 5 9 1 1 2 8 0 6 8 9 4 6 0 2 4 3 8 0 3 6 8 3 3 3 1 2
split_gain=12.3704 11.1076 11.2498 9.20764 9.45363 7.42511 7.40433 7.00962 5.16313 4.79183 4.25758 4.0125 3.87943 3.84748 3.60128 3.59342 3.56443 3.50082 3.24187 3.23389 3.12733 3.07583 2.9204 2.95826 2.66012 2.59198 2.45332 2.35261 2.29218 2.22365
threshold=1.4392041708431076 -1.0696309789519238 0.96614466192188841 -1.5559893583685456 1.4928148375837029 -1.772856141381278 -1.2942253638982797 1.2115104604626483 1.6129538947449447 2.2768533462640832 -1.6567350688983644 1.9196380523296896 -2.2567451031233943 2.1920593424919872 1.7125076579692677 -2.3017802695548015 -0.76302792425474764 -1.7705507193186796 -1.9714423709876638 -2.0108584831948551 1.2250104656651077 -1.0264918477910634 -1.3726933612068513 1.3345420493186908 -1.26003705680626 1.9933882860571657 -1.5835338161536572 0.88907742756034225 2.0913018395570826 -1.0084017432819381
decision_type=2 2 2 2 2 2 2 2 2 2 2 2 2 2 2 2 2 2 2 2 2 2 2 2 2 2 2 2 2 2
left_child=1 16 3 -3 5 -5 -7 8 9 10 -8 12 -12 15 20 -14 -1 -17 -18 -19 21 -4 -20 29 -9 -21 -23 -28 -26 -24
right_child=-2 2 14 4 -6 6 7 24 -10 -11 11 -13 13 -15 -16 17 18 19 22 25 -22 26 23 -25 28 -27 27 -29 -30 -31
leaf_value=0.0097715185221397532 0.0073880745241275206 0.0060772651588094648 0.0080093537790512821 0.0071804707482357151 0.0053883222856930778 0.0024124279510990489 0.0019016019275618927 0.011535916993251214 0.003351698886780512 0.012687988805048395 0.010351096814678561 0.0050695055767017256 0.0095366957038640985 0.0090239271734442027 0.0079075686319878234 0.00089585471454016658 0.0099712892115116133 0.0044507130980491636 0.012450583780614231 -0.0087553867643721424 0.0098216605708771158 0.010719421869370997 0.0070855868669847657 0.012193748840819234 -0.0022267747647765923 0.0033597861561510296 -0.0034406921985789536 0.0048326961554232099 0.0077965956559215765 -0.0024038143283913373
leaf_weight=231 520 290 109 149 303 382 144 52 147 33 31 68 30 35 285 109 125 49 52 2332 97 41 72 46 329 45 473 105 69 433
leaf_count=231 520 290 109 149 303 382 144 52 147 33 31 68 30 35 285 109 125 49 52 2332 97 41 72 46 329 45 473 105 69 433
internal_value=0 -0.000618959 -0.00145563 -0.00254647 -0.00312713 -0.00377153 -0.00419483 -0.00492158 -0.00578824 -0.00625541 -0.00647529 -0.00692223 -0.00723216 -0.00744181 0.00306204 -0.00766649 0.00436005 -0.00787007 0.00264295 -0.00826393 0.00138812 0.000264425 0.0011238 5.48514e-05 0.000900498 -0.00852603 -0.00109938 -0.00193774 -0.000489055 -0.00105087
internal_weight=0 6666 5707 4597 4307 4004 3855 3473 3023 2876 2843 2699 2631 2600 1110 2565 959 2535 728 2426 825 728 603 551 450 2377 619 578 398 505
internal_count=7186 6666 5707 4597 4307 4004 3855 3473 3023 2876 2843 2699 2631 2600 1110 2565 959 2535 728 2426 825 728 603 551 450 2377 619 578 398 505
is_linear=0
shrinkage=0.05


Tree=32
num_leaves=31
num_cat=0
split_feature=7 5 5 2 2 6 4 1 9 9 1 7 3 8 3 8 3 4 6 3 3 2 6 7 8 3 8 7 4 8
split_gain=11.4762 10.508 10.7788 8.3634 9.11029 6.48144 5.73848 5.46246 5.20899 5.24346 4.8691 4.95421 4.64109 4.38131 4.16129 3.88696 3.6848 3.59198 3.19579 3.26146 2.8362 2.73455 2.70273 2.60948 2.54963 2.60382 2.60095 2.28397 2.42205 2.08278
threshold=-1.3707146762066784 -1.3491878155861448 1.0496590161527493 1.0709838915141072 -1.1033156658112568 1.5955466699863694 -1.9714423709876638 -1.4927644270402192 -1.8290787904760648 1.9317155795546268 2.0913018395570826 2.1212858850777927 1.7850588987957963 1.61657299941937 0.87488506941696531 -2.0235865036437795 -0.63025146101246465 2.1558910873936878 -2.3017802695548015 -2.1108785224043856 -0.83627657561404312 2.414663842785187 -1.068102989744897 1.0054409018493347 0.35719700767008372 -1.1643734087459248 -1.516674908119046 1.4545095116676892 -0.771042364122144 -1.26003705680626
decision_type=2 2 2 2 2 2 2 2 2 2 2 2 2 2 2 2 2 2 2 2 2 2 2 2 2 2 2 2 2 2
left_child=-1 -2 3 4 14 6 -6 -8 -9 10 11 12 13 15 16 -10 -3 18 -17 -20 -5 23 -4 29 25 -24 -27 28 -28 -22
right_child=1 2 22 20 5 -7 7 8 9 -11 -12 -13 -14 -15 -16 17 -18 -19 19 -21 21 -23 24 -25 -26 26 27 -29 -30 -31
leaf_value=0.0066127660670200318 0.0055965757255744784 0.0064375899434089669 0.0095305170887005266 0.0098022207085575394 0.0080418730444378316 0.0049187619353131375 0.0027317835998378302 0.0054671376806880358 0.0058775588180179951 0.0067455566880932783 0.0077622712841109625 0.0094818533379204418 0.0041468830437076335 0.0011950980753276 0.010702620419859886 0.008892827773732799 -0.0024829264403435224 0.0071927190758287914 0.0051005471983681556 -0.0083353233034479789 0.010213402844965459 0.01370613296471891 0.010026080784250479 0.0083236506858537368 0.0063348636773459593 0.010862834574211212 0.0043171115355884158 0.010838605439470661 -0.0054008472571466246 -0.002386140926339762
leaf_weight=595 613 175 161 126 90 196 228 109 54 83 63 49 98 157 125 28 342 40 46 2494 36 42 61 86 271 42 82 31 294 369
leaf_count=595 613 175 161 126 90 196 228 109 54 83 63 49 98 157 125 28 342 40 46 2494 36 42 61 86 271 42 82 31 294 369
internal_value=0 -0.000637926 -0.00127723 -0.00219547 -0.0029861 -0.00393184 -0.00442201 -0.00474725 -0.00527666 -0.00565297 -0.00599271 -0.00628488 -0.00654973 -0.00692158 0.00251596 -0.00740029 0.000536591 -0.00767522 -0.0079068 -0.008092 0.00305579 0.00146095 0.00363179 0.000413504 0.00241579 0.000333296 -0.000983541 -0.00220602 -0.00328151 -0.00126618
internal_weight=0 6591 5978 5036 4377 3735 3539 3449 3221 3112 3029 2966 2917 2819 642 2662 517 2608 2568 2540 659 533 942 491 781 510 449 407 376 405
internal_count=7186 6591 5978 5036 4377 3735 3539 3449 3221 3112 3029 2966 2917 2819 642 2662 517 2608 2568 2540 659 533 942 491 781 510 449 407 376 405
is_linear=0
shrinkage=0.05


Tree=33
num_leaves=31
num_cat=0
split_feature=7 7 5 5 6 6 3 3 2 1 2 1 1 4 3 3 4 8 2 2 7 4 3 9 5 2 2 9 7 2
split_gain=10.5422 10.2401 7.95046 8.05288 6.53483 5.82452 5.64164 4.62658 3.96523 3.20527 3.15454 2.97597 4.13167 2.77424 2.79154 4.16129 2.70502 2.70284 2.52071 2.51447 2.25974 2.21728 2.88406 2.21323 2.14588 2.2338 2.8469 2.33937 2.13349 2.11973
threshold=-1.1203705887280604 0.92206813502281693 -0.94588500833636313 1.4928148375837029 1.3121424790540852 -1.4461640449537279 -0.83627657561404312 0.88907742756034225 1.2731930409254033 -1.3202100654290014 -1.1794444679191745 -0.87433142056689739 0.80815535515499815 -1.3276024656770848 -0.95910291733072084 0.37304222851800345 -1.7011844299187815 1.7463736241351631 -1.0084017432819381 2.2622616371700865 -2.0261032275821482 -0.92955431104754782 0.66617564153246323 2.0691358116462246 -1.1958760830073323 -0.90992536199616447 0.76064631797085613 1.3282883271856776 2.1212858850777927 -0.84674060135951235
decision_type=2 2 2 2 2 2 2 2 2 2 2 2 2 2 2 2 2 2 2 2 2 2 2 2 2 2 2 2 2 2
left_child=20 2 11 4 5 -4 8 17 29 -9 -11 -2 18 -3 -15 28 -12 19 -13 23 -1 -6 -23 -8 -22 -26 27 -27 -16 -7
right_child=1 13 3 -5 21 6 7 9 -10 10 16 12 -14 14 15 -17 -18 -19 -20 -21 24 22 -24 -25 25 26 -28 -29 -30 -31
leaf_value=0.010544215063254038 0.0082662479807105328 0.010876363348386703 0.0026300604751078181 0.0047795969044620345 0.010961005973144318 0.0043950219517168796 -0.0076454722592973166 0.0095999157056212425 0.012233503920990124 0.0082175502819674361 0.012369086269451225 0.0066531490175479871 0.0073375792722953003 0.0081390992548036317 -0.0020366917650728156 0.0055232126648096661 -0.0052204985988580366 0.0025062076948784498 -0.0028787954441179034 0.0085156787335872643 0.010153732455295066 -0.0016980076242576947 0.010018154271486876 0.0076373478087286163 0.0089379029907286165 -0.0020620360433890221 0.0074710112403739582 0.01014940335669301 0.0096601488512186792 -0.0032529652136131532
leaf_weight=150 180 109 299 330 71 115 1832 56 57 56 23 83 190 186 543 380 440 74 422 25 115 220 69 24 120 361 143 44 42 427
leaf_count=150 180 109 299 330 71 115 1832 56 57 56 23 83 190 186 543 380 440 74 422 25 115 220 69 24 120 361 143 44 42 427
internal_value=0 -0.000775447 -0.00179189 -0.00271159 -0.0033642 -0.00403719 -0.0046743 -0.00570736 -0.000310983 -0.00176479 -0.00299104 0.00253649 0.00105252 0.0032524 0.0025304 0.00144935 -0.00434672 -0.00686693 -0.00131216 -0.00723568 0.00492218 0.00304423 0.00109928 -0.00744785 0.00384516 0.0027591 0.00140608 -0.000735361 -0.00119692 -0.00163024
internal_weight=0 6253 4993 4118 3788 3428 3129 2530 599 575 519 875 695 1260 1151 965 463 1955 505 1881 933 360 289 1856 783 668 548 405 585 542
internal_count=7186 6253 4993 4118 3788 3428 3129 2530 599 575 519 875 695 1260 1151 965 463 1955 505 1881 933 360 289 1856 783 668 548 405 585 542
is_linear=0
shrinkage=0.05


Tree=34
num_leaves=31
num_cat=0
